{"learner":{"attributes":{"scikit_learn":"{\"_estimator_type\": \"classifier\"}"},"feature_names":["step","amount","oldbalanceOrg","newbalanceOrig","oldbalanceDest","newbalanceDest","isFlaggedFraud","balance_error","drained_account","type_CASH_IN","type_CASH_OUT","type_DEBIT","type_PAYMENT","type_TRANSFER"],"feature_types":["float","float","float","float","float","float","int","float","float","float","float","float","float","float"],"gradient_booster":{"model":{"cats":{"enc":[],"feature_segments":[],"sorted_idx":[]},"gbtree_model_param":{"num_parallel_tree":"1","num_trees":"100"},"iteration_indptr":[0,1,2,3,4,5,6,7,8,9,10,11,12,13,14,15,16,17,18,19,20,21,22,23,24,25,26,27,28,29,30,31,32,33,34,35,36,37,38,39,40,41,42,43,44,45,46,47,48,49,50,51,52,53,54,55,56,57,58,59,60,61,62,63,64,65,66,67,68,69,70,71,72,73,74,75,76,77,78,79,80,81,82,83,84,85,86,87,88,89,90,91,92,93,94,95,96,97,98,99,100],"tree_info":[0,0,0,0,0,0,0,0,0,0,0,0,0,0,0,0,0,0,0,0,0,0,0,0,0,0,0,0,0,0,0,0,0,0,0,0,0,0,0,0,0,0,0,0,0,0,0,0,0,0,0,0,0,0,0,0,0,0,0,0,0,0,0,0,0,0,0,0,0,0,0,0,0,0,0,0,0,0,0,0,0,0,0,0,0,0,0,0,0,0,0,0,0,0,0,0,0,0,0,0],"trees":[{"base_weights":[1.3567298E-8,-1.972678E0,1.3213229E0,-1.983258E0,1.9992618E-1,-1.6751828E0,1.9999984E-1,-1.2598093E0,-1.9847484E0,-1.9999923E-1,1.9951868E0,-1.998507E-1,5.2655283E-2,-1.9105861E0,-1.9948026E0,1.9998686E-1,-1.927928E-1,1.9240264E0,-1.99446E-1,-1.8074232E0,-1.9887459E0,-1.9646652E0,-1.9963554E0,1.9794542E0,-1.6923077E-1,-1.9681377E0,-1.6670946E0,-1.9999684E-1,-1.8606758E0,-4.3972576E-1,-1.9821074E0,-1.9900492E0,-1.9999963E-1,-1E-1,1.9897006E-1,-1.07504465E-1,-1.999915E-1,9.8050356E-2,-1.8800557E-1,-1.9996086E-1,-3.1610604E-2,1.5432477E-1,-1.992838E-1,-1.999949E-1,-1.8105014E-1,-1.9924232E-1,-1.831677E-1],"categories":[],"categories_nodes":[],"categories_segments":[],"categories_sizes":[],"default_left":[0,0,0,0,0,0,0,0,0,0,0,0,0,0,0,0,0,0,0,0,0,0,0,0,0,0,0,0,0,0,0,0,0,0,0,0,0,0,0,0,0,0,0,0,0,0,0],"id":0,"left_children":[1,3,5,7,-1,9,-1,11,13,-1,15,-1,17,19,21,-1,-1,23,-1,25,27,29,31,33,-1,35,37,-1,39,41,43,45,-1,-1,-1,-1,-1,-1,-1,-1,-1,-1,-1,-1,-1,-1,-1],"loss_changes":[6.6252225E6,4.284975E4,3.0956048E6,1.094E3,0E0,3.3511638E5,0E0,2.0296614E3,7.53E2,0E0,4.2360938E2,0E0,2.8956936E3,9.7340625E2,3.775E1,0E0,0E0,8.250049E1,0E0,1.1749219E3,9.5375E1,1.1655156E3,1.575E1,1.3876831E1,0E0,6.888203E2,1.5731016E4,0E0,1.1941973E3,1.5343021E3,1.29125E2,1.13375E2,0E0,0E0,0E0,0E0,0E0,0E0,0E0,0E0,0E0,0E0,0E0,0E0,0E0,0E0,0E0],"parents":[2147483647,0,0,1,1,2,2,3,3,5,5,7,7,8,8,10,10,12,12,13,13,14,14,17,17,19,19,20,20,21,21,22,22,23,23,25,25,26,26,28,28,29,29,30,30,31,31],"right_children":[2,4,6,8,-1,10,-1,12,14,-1,16,-1,18,20,22,-1,-1,24,-1,26,28,30,32,34,-1,36,38,-1,40,42,44,46,-1,-1,-1,-1,-1,-1,-1,-1,-1,-1,-1,-1,-1,-1,-1],"split_conditions":[3.3158743E-1,1E0,8.7347186E-1,-1.6535822E0,1.9992618E-1,1.1958125E0,1.9999984E-1,1E0,-1.4357934E0,-1.9999923E-1,-1.5157002E-1,-1.998507E-1,-3.2288054E-1,-2.887606E-1,-1.0423685E0,1.9998686E-1,-1.927928E-1,-2.87197E-1,-1.99446E-1,1E0,1E0,-1.9421574E0,-7.988283E-2,-1.1957199E-1,-1.6923077E-1,-1.6465567E0,-3.098411E-1,-1.9999684E-1,2.5792223E-1,1.2036131E-1,-1.3795899E0,-8.690827E-2,-1.9999963E-1,-1E-1,1.9897006E-1,-1.07504465E-1,-1.999915E-1,9.8050356E-2,-1.8800557E-1,-1.9996086E-1,-3.1610604E-2,1.5432477E-1,-1.992838E-1,-1.999949E-1,-1.8105014E-1,-1.9924232E-1,-1.831677E-1],"split_indices":[7,6,8,0,0,1,0,10,0,0,5,0,4,2,0,0,0,2,0,10,13,7,0,1,0,0,4,0,7,5,0,0,0,0,0,0,0,0,0,0,0,0,0,0,0,0,0],"split_type":[0,0,0,0,0,0,0,0,0,0,0,0,0,0,0,0,0,0,0,0,0,0,0,0,0,0,0,0,0,0,0,0,0,0,0,0,0,0,0,0,0,0,0,0,0,0,0],"sum_hessian":[2.5417625E6,1.01957725E6,1.5221852E6,1.0168691E6,2.7081184E3,2.810933E5,1.241092E6,2.092374E3,1.01477675E6,2.5824075E5,2.2852568E4,1.3385E3,7.53874E2,1.2117112E5,8.936056E5,2.2825818E4,2.675E1,3.9387405E2,3.6E2,5.224168E4,6.892944E4,4.3850875E4,8.4975475E5,3.8837405E2,5.5E0,2.4345938E4,2.7895744E4,6.33625E4,5.566937E3,4.96187E2,4.3354688E4,3.11231E5,5.3852375E5,1E0,3.8737405E2,8.37687E2,2.350825E4,2.076496E3,2.5819248E4,5.10725E3,4.59687E2,2.1793703E2,2.7825E2,3.9262E4,4.092687E3,3.066233E5,4.607687E3],"tree_param":{"num_deleted":"0","num_feature":"14","num_nodes":"47","size_leaf_vector":"1"}},{"base_weights":[7.169632E-7,-1.7937156E0,1.2015653E0,-1.8033355E0,1.8181132E-1,-1.5233536E0,1.8187295E-1,-1.1457905E0,-1.8046902E0,-1.8187243E-1,1.8143494E0,-1.8174815E-1,4.751708E-2,-1.7366076E0,-1.813924E0,1.8186168E-1,-1.758309E-1,1.7491374E0,-1.8140951E-1,-1.6419587E0,-1.8083831E0,-1.786261E0,-1.8153496E0,1.8000323E-1,-1.5588523E-1,-1.7893198E0,-1.5134689E0,-1.8187045E-1,-1.6906929E0,-3.993196E-1,-1.8021506E0,-1.8190207E-1,-1.8096336E0,-9.7056724E-2,-1.8186598E-1,8.8470094E-2,-1.7076094E-1,-1.8184033E-1,-2.846377E-2,1.3981861E-1,-1.8127377E-1,-1.8200813E-1,-1.6401643E-1,-1.7943779E-1,-1.8187223E-1],"categories":[],"categories_nodes":[],"categories_segments":[],"categories_sizes":[],"default_left":[0,0,0,0,0,0,0,0,0,0,0,0,0,0,0,0,0,0,0,0,0,0,0,0,0,0,0,0,0,0,0,0,0,0,0,0,0,0,0,0,0,0,0,0,0],"id":1,"left_children":[1,3,5,7,-1,9,-1,11,13,-1,15,-1,17,19,21,-1,-1,23,-1,25,27,29,31,-1,-1,33,35,-1,37,39,41,-1,43,-1,-1,-1,-1,-1,-1,-1,-1,-1,-1,-1,-1],"loss_changes":[5.4239635E6,3.50805E4,2.5344688E6,8.9475E2,0E0,2.7437025E5,0E0,1.661418E3,6.2825E2,0E0,3.4816406E2,0E0,2.370967E3,8.1246875E2,3.175E1,0E0,0E0,6.863855E1,0E0,9.776094E2,7.9828125E1,9.5628125E2,1.425E1,0E0,0E0,5.774375E2,1.288182E4,0E0,9.901758E2,1.2554452E3,1.21703125E2,0E0,4.2375E1,0E0,0E0,0E0,0E0,0E0,0E0,0E0,0E0,0E0,0E0,0E0,0E0],"parents":[2147483647,0,0,1,1,2,2,3,3,5,5,7,7,8,8,10,10,12,12,13,13,14,14,17,17,19,19,20,20,21,21,22,22,25,25,26,26,28,28,29,29,30,30,32,32],"right_children":[2,4,6,8,-1,10,-1,12,14,-1,16,-1,18,20,22,-1,-1,24,-1,26,28,30,32,-1,-1,34,36,-1,38,40,42,-1,44,-1,-1,-1,-1,-1,-1,-1,-1,-1,-1,-1,-1],"split_conditions":[3.3158743E-1,1E0,8.7347186E-1,-1.6535822E0,1.8181132E-1,1.1958125E0,1.8187295E-1,1E0,-1.4357934E0,-1.8187243E-1,-1.5157002E-1,-1.8174815E-1,-3.2288054E-1,-2.887606E-1,-1.0423685E0,1.8186168E-1,-1.758309E-1,-2.87197E-1,-1.8140951E-1,1E0,1E0,-1.9421574E0,1E0,1.8000323E-1,-1.5588523E-1,-1.6465567E0,-3.098411E-1,-1.8187045E-1,2.5792223E-1,1.2036131E-1,1E0,-1.8190207E-1,-7.988283E-2,-9.7056724E-2,-1.8186598E-1,8.8470094E-2,-1.7076094E-1,-1.8184033E-1,-2.846377E-2,1.3981861E-1,-1.8127377E-1,-1.8200813E-1,-1.6401643E-1,-1.7943779E-1,-1.8187223E-1],"split_indices":[7,6,8,0,0,1,0,10,0,0,5,0,4,2,0,0,0,2,0,10,13,7,10,0,0,0,4,0,7,5,13,0,0,0,0,0,0,0,0,0,0,0,0,0,0],"split_type":[0,0,0,0,0,0,0,0,0,0,0,0,0,0,0,0,0,0,0,0,0,0,0,0,0,0,0,0,0,0,0,0,0,0,0,0,0,0,0,0,0,0,0,0,0],"sum_hessian":[2.5166078E6,1.0095434E6,1.5070644E6,1.0068621E6,2.6812366E3,2.783011E5,1.2287632E6,2.0716904E3,1.00479044E6,2.5567548E5,2.2625607E4,1.3252234E3,7.464671E2,1.20023164E5,8.847673E5,2.2599104E4,2.6502964E1,3.900236E2,3.564435E2,5.177396E4,6.8249195E4,4.342348E4,8.413438E5,3.8456277E2,5.4608083E0,2.4110016E4,2.7663947E4,6.273309E4,5.516108E3,4.9215015E2,4.2931332E4,5.121249E5,3.292189E5,8.352713E2,2.3274744E4,2.0715134E3,2.5592434E4,5.0565356E3,4.5957224E2,2.1664456E2,2.7550558E2,3.864354E4,4.2877944E3,1.2298314E5,2.0623578E5],"tree_param":{"num_deleted":"0","num_feature":"14","num_nodes":"45","size_leaf_vector":"1"}},{"base_weights":[5.265721E-6,-1.6590141E0,1.1116166E0,-1.6679108E0,1.6820303E-1,-1.4093157E0,1.6825806E-1,-1.0600016E0,-1.669163E0,-1.6825758E-1,1.6785172E0,-1.6814664E-1,4.371593E-2,-1.6045853E0,-1.6779313E0,1.6824763E-1,-1.6287075E-1,1.6171402E0,-1.6784433E-1,-1.5149621E0,-1.6727169E0,-1.6707338E0,-1.6831176E-1,1.6647486E-1,-1.4514993E-1,-1.6959301E0,-1.4166996E0,-1.682558E-1,-1.5607462E0,-1.6802365E0,-1.6445395E0,-1.6862562E-1,-1.8563722E-1,1.3404159E-1,-1.595274E-1,-1.6822892E-1,-2.5641087E-2,-1.6830464E-1,-1.6716926E-1,6.0340215E-2,-1.6604628E-1],"categories":[],"categories_nodes":[],"categories_segments":[],"categories_sizes":[],"default_left":[0,0,0,0,0,0,0,0,0,0,0,0,0,0,0,0,0,0,0,0,0,0,0,0,0,0,0,0,0,0,0,0,0,0,0,0,0,0,0,0,0],"id":2,"left_children":[1,3,5,7,-1,9,-1,11,13,-1,15,-1,17,19,21,-1,-1,23,-1,25,27,29,-1,-1,-1,31,33,-1,35,37,39,-1,-1,-1,-1,-1,-1,-1,-1,-1,-1],"loss_changes":[4.521285E6,2.924075E4,2.113005E6,7.45E2,0E0,2.2874425E5,0E0,1.3851777E3,5.5175E2,0E0,2.9132812E2,0E0,1.976455E3,7.1225E2,2.925E1,0E0,0E0,5.8099365E1,0E0,8.9678125E2,7.065625E1,8.71875E1,0E0,0E0,0E0,2.4480469E1,1.6140281E4,0E0,8.5340137E2,3.5E0,3.4436719E3,0E0,0E0,0E0,0E0,0E0,0E0,0E0,0E0,0E0,0E0],"parents":[2147483647,0,0,1,1,2,2,3,3,5,5,7,7,8,8,10,10,12,12,13,13,14,14,17,17,19,19,20,20,21,21,25,25,26,26,28,28,29,29,30,30],"right_children":[2,4,6,8,-1,10,-1,12,14,-1,16,-1,18,20,22,-1,-1,24,-1,26,28,30,-1,-1,-1,32,34,-1,36,38,40,-1,-1,-1,-1,-1,-1,-1,-1,-1,-1],"split_conditions":[3.3158743E-1,1E0,8.7347186E-1,-1.6535822E0,1.6820303E-1,1.1958125E0,1.6825806E-1,1E0,-1.4357934E0,-1.6825758E-1,-1.5157002E-1,-1.6814664E-1,-3.2288054E-1,-2.887606E-1,-2.887606E-1,1.6824763E-1,-1.6287075E-1,-2.87197E-1,-1.6784433E-1,-3.0760407E-1,1E0,3.4518547E-2,-1.6831176E-1,1.6647486E-1,-1.4514993E-1,1E0,-3.098411E-1,-1.682558E-1,2.5792223E-1,-1.4434153E-1,-3.2288054E-1,-1.6862562E-1,-1.8563722E-1,1.3404159E-1,-1.595274E-1,-1.6822892E-1,-2.5641087E-2,-1.6830464E-1,-1.6716926E-1,6.0340215E-2,-1.6604628E-1],"split_indices":[7,6,8,0,0,1,0,10,0,0,5,0,4,2,2,0,0,2,0,5,13,1,0,0,0,10,4,0,7,1,4,0,0,0,0,0,0,0,0,0,0],"split_type":[0,0,0,0,0,0,0,0,0,0,0,0,0,0,0,0,0,0,0,0,0,0,0,0,0,0,0,0,0,0,0,0,0,0,0,0,0,0,0,0,0],"sum_hessian":[2.451642E6,9.8362894E5,1.468013E6,9.810171E5,2.611807E3,2.7108984E5,1.1969232E6,2.0183331E3,9.789988E5,2.4905039E5,2.2039441E4,1.2909313E3,7.274018E2,1.17057555E5,8.6194125E5,2.201358E4,2.5861471E1,3.8014716E2,3.4725464E2,5.0565145E4,6.649241E4,3.6111912E5,5.0082212E5,3.7478998E2,5.357185E0,1.7788365E4,3.277678E4,6.110758E4,5.384829E3,2.6494138E5,9.617775E4,1.6787654E4,1.0007115E3,1.9933745E3,3.0783406E4,4.925556E3,4.5927252E2,1.9922438E5,6.5717016E4,6.7622186E2,9.550153E4],"tree_param":{"num_deleted":"0","num_feature":"14","num_nodes":"41","size_leaf_vector":"1"}},{"base_weights":[1.1279462E-5,-1.5541799E0,1.0417792E0,-1.5625131E0,1.576357E-1,-1.3207753E0,1.5768728E-1,-1.4925187E0,-1.5721956E0,-1.5768687E-1,1.5730505E0,-1.5587183E0,-1.4003191E0,-1.5440893E0,-1.5736457E0,1.5767728E-1,-1.5265334E-1,-1.5687345E0,-1.3172823E0,-1.0049891E0,-1.5066365E0,-2.0573203E-1,-1.5598855E0,-1.5677178E0,-1.5770705E-1,-1.5778348E-1,-1.5121319E0,1.4201999E0,-1.5820819E-1,7.8353184E-1,-1.505486E0,-8.959046E-1,-1.5252073E0,1.42193E0,-1.5728574E-1,-1.5779857E-1,-1.386789E0,-1.5701369E0,-1.4070837E0,-1.581667E-1,-8.2393385E-2,2.0223203E-1,-1.5379421E-1,1.343252E-1,-2.037941E-1,1.271207E-1,-1.5766753E-1,1.8617006E-1,-1.5861122E-1,-1.22627966E-1,-1.564297E-1,1.8700606E-1,-2.0500827E-1,-1.5874681E-1,-2.7888669E-2,-1.5779011E-1,-1.5501079E-1,-1.5861128E-1,-1.1587987E-1],"categories":[],"categories_nodes":[],"categories_segments":[],"categories_sizes":[],"default_left":[0,0,0,0,0,0,0,0,0,0,0,0,0,0,0,0,0,0,0,0,0,0,0,0,0,0,0,0,0,0,0,0,0,0,0,0,0,0,0,0,0,0,0,0,0,0,0,0,0,0,0,0,0,0,0,0,0,0,0],"id":3,"left_children":[1,3,5,7,-1,9,-1,11,13,-1,15,17,19,21,23,-1,-1,25,27,29,31,33,35,37,-1,-1,39,41,-1,43,45,47,49,51,-1,-1,53,55,57,-1,-1,-1,-1,-1,-1,-1,-1,-1,-1,-1,-1,-1,-1,-1,-1,-1,-1,-1,-1],"loss_changes":[3.82018E6,2.470375E4,1.785776E6,6.375E2,0E0,1.9331975E5,0E0,6.9834375E2,3.15E1,0E0,2.4710156E2,1.5946875E2,2.0150547E3,8.611719E2,1.35E1,0E0,0E0,3.0640625E1,1.9355894E3,9.106148E3,4.274453E2,1.0625564E3,1.24E2,1.100625E2,0E0,0E0,4.2492578E2,4.2304337E2,0E0,3.5159985E3,1.5730488E3,2.1311492E3,4.2682812E2,3.4309943E2,0E0,0E0,8.490869E2,4.1875E1,1.8918945E2,0E0,0E0,0E0,0E0,0E0,0E0,0E0,0E0,0E0,0E0,0E0,0E0,0E0,0E0,0E0,0E0,0E0,0E0,0E0,0E0],"parents":[2147483647,0,0,1,1,2,2,3,3,5,5,7,7,8,8,10,10,11,11,12,12,13,13,14,14,17,17,18,18,19,19,20,20,21,21,22,22,23,23,26,26,27,27,29,29,30,30,31,31,32,32,33,33,36,36,37,37,38,38],"right_children":[2,4,6,8,-1,10,-1,12,14,-1,16,18,20,22,24,-1,-1,26,28,30,32,34,36,38,-1,-1,40,42,-1,44,46,48,50,52,-1,-1,54,56,58,-1,-1,-1,-1,-1,-1,-1,-1,-1,-1,-1,-1,-1,-1,-1,-1,-1,-1,-1,-1],"split_conditions":[3.3158743E-1,1E0,8.7347186E-1,-1.4357934E0,1.576357E-1,1.1958125E0,1.5768728E-1,1E0,-1.0423685E0,-1.5768687E-1,-1.5157002E-1,1.4214215E0,-3.098411E-1,-1.9421574E0,-7.988283E-2,1.5767728E-1,-1.5265334E-1,1E0,-6.876904E-2,-2.887606E-1,-5.0524735E-1,1.2036131E-1,-1.3795899E0,-8.690827E-2,-1.5770705E-1,-1.5778348E-1,2.5792223E-1,-2.887606E-1,-1.5820819E-1,1.7544249E-1,-1.6535822E0,5.5412763E-1,-2.3065405E-1,-2.887606E-1,-1.5728574E-1,-1.5779857E-1,1E0,8.029588E-2,1E0,-1.581667E-1,-8.2393385E-2,2.0223203E-1,-1.5379421E-1,1.343252E-1,-2.037941E-1,1.271207E-1,-1.5766753E-1,1.8617006E-1,-1.5861122E-1,-1.22627966E-1,-1.564297E-1,1.8700606E-1,-2.0500827E-1,-1.5874681E-1,-2.7888669E-2,-1.5779011E-1,-1.5501079E-1,-1.5861128E-1,-1.1587987E-1],"split_indices":[7,6,8,0,0,1,0,10,0,0,5,1,4,7,0,0,0,13,5,2,7,5,0,0,0,0,7,2,0,7,0,1,1,2,0,0,13,1,10,0,0,0,0,0,0,0,0,0,0,0,0,0,0,0,0,0,0,0,0],"split_type":[0,0,0,0,0,0,0,0,0,0,0,0,0,0,0,0,0,0,0,0,0,0,0,0,0,0,0,0,0,0,0,0,0,0,0,0,0,0,0,0,0,0,0,0,0,0,0,0,0,0,0,0,0,0,0,0,0,0,0],"sum_hessian":[2.359435E6,9.4684975E5,1.4125852E6,9.443365E5,2.5132568E3,2.6085445E5,1.1517309E6,1.1477661E5,8.295599E5,2.39647E5,2.1207459E4,6.679886E4,4.7977754E4,4.074923E4,7.888107E5,2.1182512E4,2.494638E1,6.4132754E4,2.6661055E3,1.0170454E4,3.78073E4,4.755016E2,4.027373E4,2.8901884E5,4.997918E5,5.52269E4,8.905856E3,2.3476414E2,2.4313413E3,2.2236597E3,7.946794E3,1.117149E3,3.6690152E4,2.1704895E2,2.5845264E2,3.6453746E4,3.8199822E3,2.847223E5,4.2965396E3,8.0874106E3,8.1844556E2,1.953231E2,3.944104E1,1.855994E3,3.676658E2,1.982268E2,7.7485674E3,2.2329909E2,8.9385E2,4.246731E3,3.244342E4,1.9264568E2,2.4403275E1,3.2337979E3,5.861845E2,2.0512766E5,7.959465E4,2.4933154E3,1.8032244E3],"tree_param":{"num_deleted":"0","num_feature":"14","num_nodes":"59","size_leaf_vector":"1"}},{"base_weights":[1.7414384E-5,-1.4705478E0,9.861805E-1,-1.4784312E0,1.4922145E-1,-1.2502857E0,1.4927168E-1,-1.4098583E0,-1.4879348E0,-1.4927125E-1,1.4890808E0,-1.474475E0,-1.3201611E0,-1.4603118E0,-1.4893609E0,1.4926168E-1,-1.443973E-1,-1.4841301E0,-1.2424976E0,-9.460524E-1,-1.4209863E0,-1.9319212E-1,-1.4754661E0,-1.4832796E0,-1.4928763E-1,-1.4934985E-1,-1.4260736E0,1.2904378E0,-1.4968811E-1,7.2334117E-1,-1.4245613E0,-8.3383214E-1,-1.4391233E0,1.3043493E0,-1.4886467E-1,-1.4936085E-1,-1.3032032E0,-1.4857146E0,-1.3226292E0,-8.089129E-2,-1.5051846E-1,-1.4722031E-1,1.8288873E-1,1.2436529E-1,-1.8480101E-1,1.1832187E-1,-1.4925295E-1,1.6086692E-1,-1.4999107E-1,-1.14511184E-1,-1.4780031E-1,1.720596E-1,-1.8483168E-1,-1.5011676E-1,-2.5294786E-2,-1.4935434E-1,-1.4655411E-1,-1.5107816E-1,-1.06912196E-1],"categories":[],"categories_nodes":[],"categories_segments":[],"categories_sizes":[],"default_left":[0,0,0,0,0,0,0,0,0,0,0,0,0,0,0,0,0,0,0,0,0,0,0,0,0,0,0,0,0,0,0,0,0,0,0,0,0,0,0,0,0,0,0,0,0,0,0,0,0,0,0,0,0,0,0,0,0,0,0],"id":4,"left_children":[1,3,5,7,-1,9,-1,11,13,-1,15,17,19,21,23,-1,-1,25,27,29,31,33,35,37,-1,-1,39,41,-1,43,45,47,49,51,-1,-1,53,55,57,-1,-1,-1,-1,-1,-1,-1,-1,-1,-1,-1,-1,-1,-1,-1,-1,-1,-1,-1,-1],"loss_changes":[3.2619462E6,2.1090625E4,1.5252621E6,5.8475E2,0E0,1.651174E5,0E0,6.334531E2,2.9125E1,0E0,2.118086E2,1.4085938E2,1.7305625E3,7.462422E2,1.375E1,0E0,0E0,3.1140625E1,1.6462986E3,7.78987E3,3.839297E2,8.955285E2,1.1811719E2,1.058125E2,0E0,0E0,4.1479102E2,3.499548E2,0E0,2.9093794E3,1.3450391E3,1.7692922E3,3.993203E2,2.842397E2,0E0,0E0,7.623237E2,4.06875E1,1.9509766E2,0E0,0E0,0E0,0E0,0E0,0E0,0E0,0E0,0E0,0E0,0E0,0E0,0E0,0E0,0E0,0E0,0E0,0E0,0E0,0E0],"parents":[2147483647,0,0,1,1,2,2,3,3,5,5,7,7,8,8,10,10,11,11,12,12,13,13,14,14,17,17,18,18,19,19,20,20,21,21,22,22,23,23,26,26,27,27,29,29,30,30,31,31,32,32,33,33,36,36,37,37,38,38],"right_children":[2,4,6,8,-1,10,-1,12,14,-1,16,18,20,22,24,-1,-1,26,28,30,32,34,36,38,-1,-1,40,42,-1,44,46,48,50,52,-1,-1,54,56,58,-1,-1,-1,-1,-1,-1,-1,-1,-1,-1,-1,-1,-1,-1,-1,-1,-1,-1,-1,-1],"split_conditions":[3.3158743E-1,1E0,8.7347186E-1,-1.4357934E0,1.4922145E-1,1.1958125E0,1.4927168E-1,1E0,-1.0423685E0,-1.4927125E-1,-1.5157002E-1,1.4214215E0,-3.098411E-1,-1.9421574E0,-7.988283E-2,1.4926168E-1,-1.443973E-1,1E0,-6.876904E-2,-2.887606E-1,-5.0524735E-1,1.2036131E-1,-1.3795899E0,-8.690827E-2,-1.4928763E-1,-1.4934985E-1,-2.6069653E-1,-7.2546415E-2,-1.4968811E-1,1.7544249E-1,-1.6535822E0,5.5412763E-1,-2.3065405E-1,-2.887606E-1,-1.4886467E-1,-1.4936085E-1,1E0,8.029588E-2,1.7544249E-1,-8.089129E-2,-1.5051846E-1,-1.4722031E-1,1.8288873E-1,1.2436529E-1,-1.8480101E-1,1.1832187E-1,-1.4925295E-1,1.6086692E-1,-1.4999107E-1,-1.14511184E-1,-1.4780031E-1,1.720596E-1,-1.8483168E-1,-1.5011676E-1,-2.5294786E-2,-1.4935434E-1,-1.4655411E-1,-1.5107816E-1,-1.06912196E-1],"split_indices":[7,6,8,0,0,1,0,10,0,0,5,1,4,7,0,0,0,13,5,2,7,5,0,0,0,0,5,5,0,7,0,1,1,2,0,0,13,1,7,0,0,0,0,0,0,0,0,0,0,0,0,0,0,0,0,0,0,0,0],"split_type":[0,0,0,0,0,0,0,0,0,0,0,0,0,0,0,0,0,0,0,0,0,0,0,0,0,0,0,0,0,0,0,0,0,0,0,0,0,0,0,0,0,0,0,0,0,0,0,0,0,0,0,0,0,0,0,0,0,0,0],"sum_hessian":[2.2492795E6,9.028901E5,1.3463892E6,9.0049456E5,2.3955554E3,2.486306E5,1.0977586E6,1.09627836E5,7.9086675E5,2.2841677E5,2.021383E4,6.371379E4,4.5914043E4,3.887606E4,7.519907E5,2.018998E4,2.3848783E1,6.1162758E4,2.5510293E3,9.749437E3,3.6164605E4,4.5961243E2,3.841645E4,2.7561166E5,4.7637903E5,5.264321E4,8.519549E3,2.3244695E2,2.3185825E3,2.1718618E3,7.577575E3,1.0850424E3,3.5079562E4,2.1317543E2,2.46437E2,3.474907E4,3.6673787E3,2.7148853E5,4.1231235E3,9.6927563E2,7.5502734E3,3.7632164E1,1.9481477E2,1.8067776E3,3.650843E2,1.9206561E2,7.3855093E3,2.3218987E2,8.5285254E2,4.1006543E3,3.097891E4,1.8871379E2,2.4461645E1,3.085381E3,5.8199756E2,1.955332E5,7.595532E4,2.3637761E3,1.7593474E3],"tree_param":{"num_deleted":"0","num_feature":"14","num_nodes":"59","size_leaf_vector":"1"}},{"base_weights":[2.421637E-5,-1.402488E0,9.410418E-1,-1.410005E0,1.423891E-1,-1.1930583E0,1.424394E-1,-1.342118E0,-1.419433E0,-1.42439E-1,1.4209048E0,-1.4058174E0,-1.2540157E0,-1.4116877E0,-1.4250182E-1,1.4242917E-1,-1.3759044E-1,-1.4151531E0,-1.1820548E0,-8.975975E-1,-1.3502496E0,-1.4216195E0,-1.3843838E0,-1.4250392E-1,-1.3541815E0,1.1911974E0,-1.4277594E-1,6.727929E-1,-1.3586745E0,-7.832182E-1,-1.3680066E0,-1.4247642E-1,-1.4120675E0,8.9060926E-1,-1.4018471E0,-1.4293793E-1,-6.5606326E-2,1.6829102E-1,-1.3988702E-1,1.1582583E-1,-1.7058112E-1,1.106015E-1,-1.4242111E-1,1.417891E-1,-1.4300303E-1,-1.0736265E-1,-1.4075184E-1,-8.2413934E-2,-1.42549E-1,-1.527532E-1,1.9928448E-1,-1.4106373E-1,-7.857524E-2],"categories":[],"categories_nodes":[],"categories_segments":[],"categories_sizes":[],"default_left":[0,0,0,0,0,0,0,0,0,0,0,0,0,0,0,0,0,0,0,0,0,0,0,0,0,0,0,0,0,0,0,0,0,0,0,0,0,0,0,0,0,0,0,0,0,0,0,0,0,0,0,0,0],"id":5,"left_children":[1,3,5,7,-1,9,-1,11,13,-1,15,17,19,21,-1,-1,-1,23,25,27,29,31,33,-1,35,37,-1,39,41,43,45,-1,47,49,51,-1,-1,-1,-1,-1,-1,-1,-1,-1,-1,-1,-1,-1,-1,-1,-1,-1,-1],"loss_changes":[2.8087035E6,1.8157125E4,1.3137616E6,5.435E2,0E0,1.4222116E5,0E0,5.8159375E2,3.0375E1,0E0,1.8309375E2,1.2433594E2,1.4951875E3,8.30625E1,0E0,0E0,0E0,3.296875E1,1.413988E3,6.7190156E3,3.4479688E2,4.90625E0,3.3263125E3,0E0,4.2419336E2,2.924316E2,0E0,2.4344446E3,1.1601641E3,1.490343E3,3.8589062E2,0E0,4.4916406E2,1.7039867E3,4.4867188E2,0E0,0E0,0E0,0E0,0E0,0E0,0E0,0E0,0E0,0E0,0E0,0E0,0E0,0E0,0E0,0E0,0E0,0E0],"parents":[2147483647,0,0,1,1,2,2,3,3,5,5,7,7,8,8,10,10,11,11,12,12,13,13,17,17,18,18,19,19,20,20,21,21,22,22,24,24,25,25,27,27,28,28,29,29,30,30,32,32,33,33,34,34],"right_children":[2,4,6,8,-1,10,-1,12,14,-1,16,18,20,22,-1,-1,-1,24,26,28,30,32,34,-1,36,38,-1,40,42,44,46,-1,48,50,52,-1,-1,-1,-1,-1,-1,-1,-1,-1,-1,-1,-1,-1,-1,-1,-1,-1,-1],"split_conditions":[3.3158743E-1,1E0,8.7347186E-1,-1.4357934E0,1.423891E-1,1.1958125E0,1.424394E-1,1E0,-2.887606E-1,-1.42439E-1,-1.5157002E-1,1.4214215E0,-3.098411E-1,3.4518547E-2,-1.4250182E-1,1.4242917E-1,-1.3759044E-1,1E0,-6.876904E-2,-2.887606E-1,-5.0524735E-1,-1.4434153E-1,-3.2288054E-1,-1.4250392E-1,2.5792223E-1,-2.887606E-1,-1.4277594E-1,1.7544249E-1,-1.6535822E0,5.5412763E-1,-2.3065405E-1,-1.4247642E-1,-1.4128517E-1,-1.5445806E-1,-3.3184618E-3,-1.4293793E-1,-6.5606326E-2,1.6829102E-1,-1.3988702E-1,1.1582583E-1,-1.7058112E-1,1.106015E-1,-1.4242111E-1,1.417891E-1,-1.4300303E-1,-1.0736265E-1,-1.4075184E-1,-8.2413934E-2,-1.42549E-1,-1.527532E-1,1.9928448E-1,-1.4106373E-1,-7.857524E-2],"split_indices":[7,6,8,0,0,1,0,10,2,0,5,1,4,1,0,0,0,13,5,2,7,1,4,0,7,2,0,7,0,1,1,0,1,7,7,0,0,0,0,0,0,0,0,0,0,0,0,0,0,0,0,0,0],"split_type":[0,0,0,0,0,0,0,0,0,0,0,0,0,0,0,0,0,0,0,0,0,0,0,0,0,0,0,0,0,0,0,0,0,0,0,0,0,0,0,0,0,0,0,0,0,0,0,0,0,0,0,0,0],"sum_hessian":[2.1281445E6,8.545319E5,1.2736125E6,8.522657E5,2.2661484E3,2.3519153E5,1.038421E6,1.0394591E5,7.483198E5,2.1607012E5,1.912141E4,6.0319223E4,4.362668E4,3.136358E5,4.3468397E5,1.9098773E4,2.2637506E1,5.789827E4,2.4209543E3,9.277235E3,3.4349445E4,2.299435E5,8.369232E4,4.9801043E4,8.0972275E3,2.2676733E2,2.194187E3,2.1055264E3,7.1717085E3,1.0443826E3,3.3305062E4,1.7287802E5,5.7065492E4,6.3716583E2,8.305515E4,7.308904E3,7.883238E2,1.9087988E2,3.588744E1,1.7490618E3,3.5646478E2,1.8534665E2,6.986362E3,2.3692656E2,8.0745593E2,3.9445566E3,2.9360504E4,1.2751196E3,5.579037E4,1.9937683E2,4.37789E2,8.1885555E4,1.1695992E3],"tree_param":{"num_deleted":"0","num_feature":"14","num_nodes":"53","size_leaf_vector":"1"}},{"base_weights":[2.9233832E-5,-1.3461727E0,9.038182E-1,-1.3533859E0,1.3675368E-1,-1.1458647E0,1.3680513E-1,-1.2856867E0,-1.3628087E0,-1.3680468E-1,1.3646786E0,-1.3490872E0,-1.1983577E0,-1.332639E0,-1.364369E0,1.3679448E-1,-1.3188212E-1,-1.3581438E0,-1.1324204E0,-8.5694975E-1,-1.2906891E0,-4.450237E-2,-1.3488499E0,-1.3575917E0,-1.3682908E-1,-1.3685901E-1,-1.294038E0,1.1134667E0,-1.3707861E-1,6.292779E-1,-1.3041513E0,-1.0095289E0,-1.3277768E0,1.3257008E0,-1.3638614E-1,-1.3688132E-1,-1.1618304E0,-1.3603039E0,-1.1808461E0,-1.3837038E-1,-6.862064E-2,-1.3587432E-1,1.5704273E-1,1.0834342E-1,-1.5956205E-1,1.0370175E-1,-1.367868E-1,-1.1973286E-1,1.3164702E-1,-7.409113E-2,-1.348931E-1,1.6983968E-1,-1.5980135E-1,-1.3740097E-1,-1.1389486E-2,-1.3687317E-1,-1.3386434E-1,-1.3804741E-1,-9.097851E-2],"categories":[],"categories_nodes":[],"categories_segments":[],"categories_sizes":[],"default_left":[0,0,0,0,0,0,0,0,0,0,0,0,0,0,0,0,0,0,0,0,0,0,0,0,0,0,0,0,0,0,0,0,0,0,0,0,0,0,0,0,0,0,0,0,0,0,0,0,0,0,0,0,0,0,0,0,0,0,0],"id":6,"left_children":[1,3,5,7,-1,9,-1,11,13,-1,15,17,19,21,23,-1,-1,25,27,29,31,33,35,37,-1,-1,39,41,-1,43,45,47,49,51,-1,-1,53,55,57,-1,-1,-1,-1,-1,-1,-1,-1,-1,-1,-1,-1,-1,-1,-1,-1,-1,-1,-1,-1],"loss_changes":[2.434896E6,1.5737375E4,1.139347E6,5.0975E2,0E0,1.2333959E5,0E0,5.4084375E2,3.125E1,0E0,1.593789E2,1.0984375E2,1.2982422E3,7.2351953E2,1.6125E1,0E0,0E0,3.4710938E1,1.2238381E3,5.8347427E3,3.3696875E2,7.8221814E2,1.26171875E2,1.1603125E2,0E0,0E0,4.1606152E2,2.502496E2,0E0,2.0538682E3,1.0079717E3,1.6549468E3,3.5479297E2,2.3401886E2,0E0,0E0,7.351924E2,4.23125E1,1.9983057E2,0E0,0E0,0E0,0E0,0E0,0E0,0E0,0E0,0E0,0E0,0E0,0E0,0E0,0E0,0E0,0E0,0E0,0E0,0E0,0E0],"parents":[2147483647,0,0,1,1,2,2,3,3,5,5,7,7,8,8,10,10,11,11,12,12,13,13,14,14,17,17,18,18,19,19,20,20,21,21,22,22,23,23,26,26,27,27,29,29,30,30,31,31,32,32,33,33,36,36,37,37,38,38],"right_children":[2,4,6,8,-1,10,-1,12,14,-1,16,18,20,22,24,-1,-1,26,28,30,32,34,36,38,-1,-1,40,42,-1,44,46,48,50,52,-1,-1,54,56,58,-1,-1,-1,-1,-1,-1,-1,-1,-1,-1,-1,-1,-1,-1,-1,-1,-1,-1,-1,-1],"split_conditions":[3.3158743E-1,1E0,8.7347186E-1,-1.4357934E0,1.3675368E-1,1.1958125E0,1.3680513E-1,1E0,-1.0423685E0,-1.3680468E-1,-1.5157002E-1,1.4214215E0,-3.098411E-1,-1.9421574E0,-7.988283E-2,1.3679448E-1,-1.3188212E-1,1E0,-6.876904E-2,-2.887606E-1,-2.3065405E-1,1.2036131E-1,-1.3795899E0,-8.690827E-2,-1.3682908E-1,-1.3685901E-1,-2.6140895E-1,-7.2546415E-2,-1.3707861E-1,1.7544249E-1,-1.6535822E0,-2.3267362E-1,-5.0524735E-1,-2.887606E-1,-1.3638614E-1,-1.3688132E-1,1E0,8.029588E-2,1E0,-1.3837038E-1,-6.862064E-2,-1.3587432E-1,1.5704273E-1,1.0834342E-1,-1.5956205E-1,1.0370175E-1,-1.367868E-1,-1.1973286E-1,1.3164702E-1,-7.409113E-2,-1.348931E-1,1.6983968E-1,-1.5980135E-1,-1.3740097E-1,-1.1389486E-2,-1.3687317E-1,-1.3386434E-1,-1.3804741E-1,-9.097851E-2],"split_indices":[7,6,8,0,0,1,0,10,0,0,5,1,4,7,0,0,0,13,5,2,1,5,0,0,0,0,2,5,0,7,0,1,7,2,0,0,13,1,10,0,0,0,0,0,0,0,0,0,0,0,0,0,0,0,0,0,0,0,0],"split_type":[0,0,0,0,0,0,0,0,0,0,0,0,0,0,0,0,0,0,0,0,0,0,0,0,0,0,0,0,0,0,0,0,0,0,0,0,0,0,0,0,0,0,0,0,0,0,0,0,0,0,0,0,0,0,0,0,0,0,0],"sum_hessian":[2.0012566E6,8.038758E5,1.1973809E6,8.017452E5,2.1305938E3,2.2111442E5,9.7626644E5,9.797402E4,7.037712E5,2.031373E5,1.7977123E4,5.6755402E4,4.121862E4,3.4650336E4,6.691209E5,1.7955758E4,2.1364449E1,5.447317E4,2.2822322E3,8.776524E3,3.2442096E4,4.306929E2,3.4219645E4,2.4539402E5,4.237268E5,4.6822855E4,7.6503145E3,2.1862941E2,2.0636025E3,2.029913E3,6.7466113E3,3.7839988E3,2.8658098E4,2.1127313E2,2.1941977E2,3.0913479E4,3.306167E3,2.4167886E5,3.7151597E3,6.665726E3,9.845882E2,3.379906E1,1.8483035E2,1.686226E3,3.43687E2,1.7834505E2,6.568266E3,3.5017546E3,2.8224423E2,9.9832117E2,2.7659775E4,1.8775806E2,2.3515078E1,2.749213E3,5.569542E2,1.7393933E5,6.773953E4,2.137134E3,1.5780256E3],"tree_param":{"num_deleted":"0","num_feature":"14","num_nodes":"59","size_leaf_vector":"1"}},{"base_weights":[3.6832156E-5,-1.2989383E0,8.727275E-1,-1.3058964E0,1.3204573E-1,-1.1064472E0,1.320992E-1,-1.2375662E0,-1.3154329E0,-1.3209876E-1,1.3177118E0,-1.3013626E0,-1.1501288E0,-1.3069038E0,-1.3215892E-1,1.3208795E-1,-1.2702365E-1,-1.3214462E-1,-1.2070465E0,-8.222429E-1,-1.2388756E0,-1.3177708E0,-1.2771292E0,-1.2678674E0,-5.121931E-1,5.910149E-1,-1.2584165E0,-9.5262104E-1,-1.2773695E0,-1.3212836E-1,-1.3071139E0,9.487652E-1,-1.2961477E0,-5.1704016E-2,-1.3249451E-1,2.1344815E-1,-1.4923137E-1,1.01664424E-1,-1.507988E-1,9.743884E-2,-1.3208053E-1,-1.13829754E-1,1.12434864E-1,-6.861254E-2,-1.2994993E-1,-6.819889E-2,-1.3218829E-1,-1.393399E-1,1.8918853E-1,-1.3057345E-1,-6.514788E-2],"categories":[],"categories_nodes":[],"categories_segments":[],"categories_sizes":[],"default_left":[0,0,0,0,0,0,0,0,0,0,0,0,0,0,0,0,0,0,0,0,0,0,0,0,0,0,0,0,0,0,0,0,0,0,0,0,0,0,0,0,0,0,0,0,0,0,0,0,0,0,0],"id":7,"left_children":[1,3,5,7,-1,9,-1,11,13,-1,15,17,19,21,-1,-1,-1,-1,23,25,27,29,31,33,35,37,39,41,43,-1,45,47,49,-1,-1,-1,-1,-1,-1,-1,-1,-1,-1,-1,-1,-1,-1,-1,-1,-1,-1],"loss_changes":[2.122641E6,1.3716E4,9.9367025E5,4.87375E2,0E0,1.07569125E5,0E0,5.1128125E2,3.3E1,0E0,1.3953711E2,9.9078125E1,1.1276641E3,8.771875E1,0E0,0E0,0E0,0E0,3.941123E2,5.0955967E3,3.351289E2,5.8125E0,3.1284688E3,3.6737598E2,1.9577722E3,1.7436139E3,8.811455E2,1.3980999E3,3.5110547E2,0E0,4.629375E2,1.3863412E3,4.5183594E2,0E0,0E0,0E0,0E0,0E0,0E0,0E0,0E0,0E0,0E0,0E0,0E0,0E0,0E0,0E0,0E0,0E0,0E0],"parents":[2147483647,0,0,1,1,2,2,3,3,5,5,7,7,8,8,10,10,11,11,12,12,13,13,18,18,19,19,20,20,21,21,22,22,23,23,24,24,25,25,26,26,27,27,28,28,30,30,31,31,32,32],"right_children":[2,4,6,8,-1,10,-1,12,14,-1,16,18,20,22,-1,-1,-1,-1,24,26,28,30,32,34,36,38,40,42,44,-1,46,48,50,-1,-1,-1,-1,-1,-1,-1,-1,-1,-1,-1,-1,-1,-1,-1,-1,-1,-1],"split_conditions":[3.3158743E-1,1E0,8.7347186E-1,-1.4357934E0,1.3204573E-1,1.1958125E0,1.320992E-1,1E0,-2.887606E-1,-1.3209876E-1,-1.5157002E-1,1E0,-3.098411E-1,3.4518547E-2,-1.3215892E-1,1.3208795E-1,-1.2702365E-1,-1.3214462E-1,2.5792223E-1,-2.887606E-1,-2.3065405E-1,-1.4434153E-1,-3.2288054E-1,-1.6465567E0,2.6036975E-1,1.7544249E-1,-1.6535822E0,-2.3267362E-1,-5.0524735E-1,-1.3212836E-1,-1.4128517E-1,-1.5445806E-1,-3.3184618E-3,-5.1704016E-2,-1.3249451E-1,2.1344815E-1,-1.4923137E-1,1.01664424E-1,-1.507988E-1,9.743884E-2,-1.3208053E-1,-1.13829754E-1,1.12434864E-1,-6.861254E-2,-1.2994993E-1,-6.819889E-2,-1.3218829E-1,-1.393399E-1,1.8918853E-1,-1.3057345E-1,-6.514788E-2],"split_indices":[7,6,8,0,0,1,0,10,2,0,5,13,4,1,0,0,0,0,7,2,1,1,4,0,7,7,0,1,7,0,1,7,7,0,0,0,0,0,0,0,0,0,0,0,0,0,0,0,0,0,0],"split_type":[0,0,0,0,0,0,0,0,0,0,0,0,0,0,0,0,0,0,0,0,0,0,0,0,0,0,0,0,0,0,0,0,0,0,0,0,0,0,0,0,0,0,0,0,0,0,0,0,0,0,0],"sum_hessian":[1.8724704E6,7.524579E5,1.1200125E6,7.504649E5,1.9930146E3,2.0682748E5,9.13185E5,9.192773E4,6.585371E5,1.9001172E5,1.681577E4,5.3140902E4,3.878683E4,2.7615334E5,3.8238378E5,1.6795701E4,2.0068464E1,4.3801E4,9.339899E3,8.264153E3,3.0522674E4,2.0228211E5,7.387123E4,8.587414E3,7.5248553E2,1.9489508E3,6.315203E3,3.6210422E3,2.690163E4,1.5204292E5,5.0239184E4,6.2541077E2,7.324582E4,6.074027E2,7.980011E3,2.0303662E2,5.494489E2,1.6208047E3,3.2814615E2,1.7126453E2,6.1439385E3,3.3243086E3,2.9673383E2,9.7173505E2,2.5929896E4,1.1606207E3,4.9078562E4,1.794022E2,4.460086E2,7.217154E4,1.0742827E3],"tree_param":{"num_deleted":"0","num_feature":"14","num_nodes":"51","size_leaf_vector":"1"}},{"base_weights":[4.1370025E-5,-1.2588527E0,8.4648484E-1,-1.2655938E0,1.2807079E-1,-1.0731753E0,1.2812704E-1,-1.1960875E0,-1.2753246E0,-1.2812658E-1,1.2780635E0,-1.1098095E0,-1.2631516E0,-1.2415533E0,-1.277075E0,1.2811504E-1,-1.22833334E-1,-1.2553145E0,-9.8790276E-1,-8.5203373E-1,-1.2703731E0,8.738898E-2,-1.2593321E0,-1.2693132E0,-1.2815724E-1,-1.2845159E-1,-7.6608527E-1,5.5674803E-1,-1.142927E0,-1.2847339E-1,3.7738684E-1,-1.2827595E-1,-1.134211E0,1.3419245E0,-1.2766136E-1,-1.281959E-1,-1.0510359E0,-1.2724258E0,-1.0696994E0,1.5095778E-1,-1.2872396E-1,9.560729E-2,-1.4368694E-1,-3.3086237E-2,-1.1726475E-1,1.1613575E-1,-1.404922E-1,-1.2862259E-1,1.0127064E-2,1.6712376E-1,-1.4314963E-1,-1.3017356E-1,-4.5646112E-3,-1.2818667E-1,-1.24824464E-1,-1.2975116E-1,-7.7109955E-2],"categories":[],"categories_nodes":[],"categories_segments":[],"categories_sizes":[],"default_left":[0,0,0,0,0,0,0,0,0,0,0,0,0,0,0,0,0,0,0,0,0,0,0,0,0,0,0,0,0,0,0,0,0,0,0,0,0,0,0,0,0,0,0,0,0,0,0,0,0,0,0,0,0,0,0,0,0],"id":8,"left_children":[1,3,5,7,-1,9,-1,11,13,-1,15,17,19,21,23,-1,-1,25,27,29,31,33,35,37,-1,-1,39,41,43,-1,45,-1,47,49,-1,-1,51,53,55,-1,-1,-1,-1,-1,-1,-1,-1,-1,-1,-1,-1,-1,-1,-1,-1,-1,-1],"loss_changes":[1.8590544E6,1.20095E4,8.7070775E5,4.71625E2,0E0,9.425764E4,0E0,4.9579688E2,3.475E1,0E0,1.2276367E2,6.655078E2,1.4242188E2,7.1541797E2,1.86875E1,0E0,0E0,2.4376758E2,4.899371E3,4.4600488E2,7.866406E1,6.8724036E2,1.3946484E2,1.3165625E2,0E0,0E0,1.1493308E3,1.4873511E3,4.4832812E2,0E0,3.0735175E2,0E0,7.456621E2,1.9343094E2,0E0,0E0,7.391826E2,4.653125E1,2.2304321E2,0E0,0E0,0E0,0E0,0E0,0E0,0E0,0E0,0E0,0E0,0E0,0E0,0E0,0E0,0E0,0E0,0E0,0E0],"parents":[2147483647,0,0,1,1,2,2,3,3,5,5,7,7,8,8,10,10,11,11,12,12,13,13,14,14,17,17,18,18,19,19,20,20,21,21,22,22,23,23,26,26,27,27,28,28,30,30,32,32,33,33,36,36,37,37,38,38],"right_children":[2,4,6,8,-1,10,-1,12,14,-1,16,18,20,22,24,-1,-1,26,28,30,32,34,36,38,-1,-1,40,42,44,-1,46,-1,48,50,-1,-1,52,54,56,-1,-1,-1,-1,-1,-1,-1,-1,-1,-1,-1,-1,-1,-1,-1,-1,-1,-1],"split_conditions":[3.3158743E-1,1E0,8.7347186E-1,-1.4357934E0,1.2807079E-1,1.1958125E0,1.2812704E-1,-2.887606E-1,-1.0423685E0,-1.2812658E-1,-1.5157002E-1,1E0,-1.6535822E0,-1.9421574E0,-7.988283E-2,1.2811504E-1,-1.22833334E-1,1.4214215E0,-3.098411E-1,1E0,1E0,1.2036131E-1,-1.3795899E0,-8.690827E-2,-1.2815724E-1,-1.2845159E-1,-6.876904E-2,1.7544249E-1,-5.0524735E-1,-1.2847339E-1,-3.2288054E-1,-1.2827595E-1,2.5792223E-1,-2.887606E-1,-1.2766136E-1,-1.281959E-1,2.957029E-1,8.029588E-2,1.7544249E-1,1.5095778E-1,-1.2872396E-1,9.560729E-2,-1.4368694E-1,-3.3086237E-2,-1.1726475E-1,1.1613575E-1,-1.404922E-1,-1.2862259E-1,1.0127064E-2,1.6712376E-1,-1.4314963E-1,-1.3017356E-1,-4.5646112E-3,-1.2818667E-1,-1.24824464E-1,-1.2975116E-1,-7.7109955E-2],"split_indices":[7,6,8,0,0,1,0,2,0,0,5,10,0,7,0,0,0,1,4,10,13,5,0,0,0,0,5,7,7,0,4,0,7,2,0,0,4,1,7,0,0,0,0,0,0,0,0,0,0,0,0,0,0,0,0,0,0],"split_type":[0,0,0,0,0,0,0,0,0,0,0,0,0,0,0,0,0,0,0,0,0,0,0,0,0,0,0,0,0,0,0,0,0,0,0,0,0,0,0,0,0,0,0,0,0,0,0,0,0,0,0,0,0,0,0,0,0],"sum_hessian":[1.7446344E6,7.014239E5,1.04321056E6,6.9956744E5,1.8564375E3,1.9264502E5,8.5056556E5,8.592654E4,6.136409E5,1.7698211E5,1.56629E4,3.758763E4,4.8338906E4,3.0274326E4,5.8336656E5,1.5644122E4,1.8778347E1,1.7131078E4,2.045655E4,8.3649054E2,4.7502418E4,3.9961438E2,2.9874713E4,2.141135E5,3.6925306E5,1.6164611E4,9.664661E2,1.8655691E3,1.8590982E4,6.186936E2,2.1779695E2,4.3533844E4,3.9685715E3,2.0816849E2,1.9144589E2,2.6942805E4,2.931907E3,2.1082092E5,3.292568E3,1.7973631E2,7.867298E2,1.5546838E3,3.1088525E2,6.568078E2,1.7934174E4,1.515043E2,6.6292656E1,3.533736E3,4.3483542E2,1.8642946E2,2.1739033E1,2.3464993E3,5.854078E2,1.5158542E5,5.9235504E4,1.8657657E3,1.4268024E3],"tree_param":{"num_deleted":"0","num_feature":"14","num_nodes":"57","size_leaf_vector":"1"}},{"base_weights":[5.1937586E-5,-1.2245207E0,8.241373E-1,-1.2310754E0,1.2468477E-1,-1.0448419E0,1.247445E-1,-1.1601002E0,-1.241044E0,-1.2474401E-1,1.2442957E0,-1.0724629E0,-1.2286534E0,-1.2313957E0,-1.2480166E-1,1.2473162E-1,-1.1917503E-1,-1.2214538E0,-9.491531E-1,-8.264024E-1,-1.2357404E0,-1.2064059E0,-1.24816634E-1,-1.2502316E-1,-7.418886E-1,5.2556956E-1,-1.0997772E0,-1.2500837E-1,3.6173612E-1,-1.248726E-1,-1.09427E0,-1.21343E0,-7.264599E-1,1.4285305E-1,-1.2523292E-1,9.003961E-2,-1.3782085E-1,-1.1664219E-1,-7.241585E-2,1.1122487E-1,-1.3560776E-1,-1.251637E-1,9.097323E-3,-1.24815814E-1,-1.1228067E-1,-1.2818615E-1,-1.5207577E-2],"categories":[],"categories_nodes":[],"categories_segments":[],"categories_sizes":[],"default_left":[0,0,0,0,0,0,0,0,0,0,0,0,0,0,0,0,0,0,0,0,0,0,0,0,0,0,0,0,0,0,0,0,0,0,0,0,0,0,0,0,0,0,0,0,0,0,0],"id":9,"left_children":[1,3,5,7,-1,9,-1,11,13,-1,15,17,19,21,-1,-1,-1,23,25,27,29,31,-1,-1,33,35,37,-1,39,-1,41,43,45,-1,-1,-1,-1,-1,-1,-1,-1,-1,-1,-1,-1,-1,-1],"loss_changes":[1.6345862E6,1.05561875E4,7.6599794E5,4.583125E2,0E0,8.292209E4,0E0,4.7957812E2,3.6875E1,0E0,1.0845703E2,6.444453E2,1.2699219E2,9.871875E1,0E0,0E0,0E0,2.1864258E2,4.272535E3,3.9334357E2,7.969531E1,3.229375E2,0E0,0E0,1.00233484E3,1.2735183E3,4.359746E2,0E0,2.670065E2,0E0,6.9358203E2,2.9651562E2,4.425932E2,0E0,0E0,0E0,0E0,0E0,0E0,0E0,0E0,0E0,0E0,0E0,0E0,0E0,0E0],"parents":[2147483647,0,0,1,1,2,2,3,3,5,5,7,7,8,8,10,10,11,11,12,12,13,13,17,17,18,18,19,19,20,20,21,21,24,24,25,25,26,26,28,28,30,30,31,31,32,32],"right_children":[2,4,6,8,-1,10,-1,12,14,-1,16,18,20,22,-1,-1,-1,24,26,28,30,32,-1,-1,34,36,38,-1,40,-1,42,44,46,-1,-1,-1,-1,-1,-1,-1,-1,-1,-1,-1,-1,-1,-1],"split_conditions":[3.3158743E-1,1E0,8.7347186E-1,-1.4357934E0,1.2468477E-1,1.1958125E0,1.247445E-1,-2.887606E-1,-2.887606E-1,-1.2474401E-1,-1.5157002E-1,1E0,-1.6535822E0,-7.988283E-2,-1.2480166E-1,1.2473162E-1,-1.1917503E-1,1.4214215E0,-3.098411E-1,1E0,1E0,-8.690827E-2,-1.24816634E-1,-1.2502316E-1,-6.876904E-2,1.7544249E-1,2.6518893E-1,-1.2500837E-1,-3.2288054E-1,-1.248726E-1,2.5792223E-1,3.4518547E-2,-1.4434153E-1,1.4285305E-1,-1.2523292E-1,9.003961E-2,-1.3782085E-1,-1.1664219E-1,-7.241585E-2,1.1122487E-1,-1.3560776E-1,-1.251637E-1,9.097323E-3,-1.24815814E-1,-1.1228067E-1,-1.2818615E-1,-1.5207577E-2],"split_indices":[7,6,8,0,0,1,0,2,2,0,5,10,0,0,0,0,0,1,4,10,13,0,0,0,5,7,7,0,4,0,7,1,1,0,0,0,0,0,0,0,0,0,0,0,0,0,0],"split_type":[0,0,0,0,0,0,0,0,0,0,0,0,0,0,0,0,0,0,0,0,0,0,0,0,0,0,0,0,0,0,0,0,0,0,0,0,0,0,0,0,0,0,0,0,0,0,0],"sum_hessian":[1.6197596E6,6.515581E5,9.682015E5,6.498351E5,1.723047E3,1.7879375E5,7.8940775E5,8.0044945E4,5.697902E5,1.642568E5,1.453695E4,3.513962E4,4.4905324E4,2.3910442E5,3.3068572E5,1.4519436E4,1.7515064E1,1.5908741E4,1.923088E4,7.7948785E2,4.4125836E4,9.605165E4,1.4305278E5,1.5006615E4,9.0212573E2,1.7819333E3,1.7448947E4,5.745541E2,2.0493379E2,4.040887E4,3.7169658E3,9.466466E4,1.3869905E3,1.7142393E2,7.307018E2,1.4892488E3,2.9268463E2,1.4817781E4,2.6311672E3,1.4286752E2,6.2066273E1,3.2812517E3,4.3571405E2,6.842902E4,2.6235637E4,7.0452106E2,6.8246936E2],"tree_param":{"num_deleted":"0","num_feature":"14","num_nodes":"47","size_leaf_vector":"1"}},{"base_weights":[6.643604E-5,-1.1947386E0,8.049645E-1,-1.2011311E0,1.21778585E-1,-1.0205333E0,1.21842496E-1,-1.1399251E0,-1.2133934E0,-1.2184197E-1,1.2153198E0,-1.0569537E0,-1.2045543E0,-1.204355E0,-1.2186437E-1,1.2182859E-1,-1.159445E-1,-1.2235714E0,-9.686671E-1,-8.040118E-1,-1.2097435E0,-1.2078981E0,-9.841435E-1,-1.2194308E-1,-1.2945261E0,7.888731E-1,-1.078005E0,-1.22034445E-1,3.47555E-1,-1.21940605E-1,-1.103572E0,-1.2189233E-1,-1.1798364E0,-1.2394456E-1,-6.56495E-1,-1.5187512E-1,-1.2659964E-1,-1.3832128E-1,8.665882E-2,-1.10058986E-1,-3.4556925E-2,1.0674228E-1,-1.313754E-1,-1.2256604E-1,-1.49923535E-2,-5.280233E-2,-1.1932268E-1,3.5501167E-1,-1.2492547E-1],"categories":[],"categories_nodes":[],"categories_segments":[],"categories_sizes":[],"default_left":[0,0,0,0,0,0,0,0,0,0,0,0,0,0,0,0,0,0,0,0,0,0,0,0,0,0,0,0,0,0,0,0,0,0,0,0,0,0,0,0,0,0,0,0,0,0,0,0,0],"id":10,"left_children":[1,3,5,7,-1,9,-1,11,13,-1,15,17,19,21,-1,-1,-1,23,25,27,29,31,33,-1,35,37,39,-1,41,-1,43,-1,45,-1,47,-1,-1,-1,-1,-1,-1,-1,-1,-1,-1,-1,-1,-1,-1],"loss_changes":[1.441923E6,9.30875E3,6.761636E5,4.5025E2,0E0,7.319692E4,0E0,5.3753125E2,2.2375E1,0E0,9.6166016E1,6.461211E2,1.1641406E2,1.42625E2,0E0,0E0,0E0,2.8964844E0,5.529092E3,3.481482E2,5.584375E1,5.46875E1,2.4379932E2,0E0,3.3479004E0,2.857085E2,4.4763867E2,0E0,2.326526E2,0E0,5.4250684E2,0E0,4.462578E2,0E0,3.2031172E3,0E0,0E0,0E0,0E0,0E0,0E0,0E0,0E0,0E0,0E0,0E0,0E0,0E0,0E0],"parents":[2147483647,0,0,1,1,2,2,3,3,5,5,7,7,8,8,10,10,11,11,12,12,13,13,17,17,18,18,19,19,20,20,21,21,22,22,24,24,25,25,26,26,28,28,30,30,32,32,34,34],"right_children":[2,4,6,8,-1,10,-1,12,14,-1,16,18,20,22,-1,-1,-1,24,26,28,30,32,34,-1,36,38,40,-1,42,-1,44,-1,46,-1,48,-1,-1,-1,-1,-1,-1,-1,-1,-1,-1,-1,-1,-1,-1],"split_conditions":[3.3158743E-1,1E0,8.7347186E-1,-1.0423685E0,1.21778585E-1,1.1958125E0,1.21842496E-1,-2.887606E-1,-7.988283E-2,-1.2184197E-1,-1.5157002E-1,-3.0760407E-1,-1.6535822E0,-8.690827E-2,-1.2186437E-1,1.2182859E-1,-1.159445E-1,1E0,-3.098411E-1,1E0,1E0,8.029588E-2,1.7544249E-1,-1.2194308E-1,-3.1895262E-1,-1.4128517E-1,-1.3795899E0,-1.22034445E-1,-3.2288054E-1,-1.21940605E-1,2.5792223E-1,-1.2189233E-1,8.5233055E-2,-1.2394456E-1,1.7866148E-1,-1.5187512E-1,-1.2659964E-1,-1.3832128E-1,8.665882E-2,-1.10058986E-1,-3.4556925E-2,1.0674228E-1,-1.313754E-1,-1.2256604E-1,-1.49923535E-2,-5.280233E-2,-1.1932268E-1,3.5501167E-1,-1.2492547E-1],"split_indices":[7,6,8,0,0,1,0,2,0,0,5,5,0,0,0,0,0,10,4,10,13,1,7,0,4,1,0,0,4,0,7,0,1,0,7,0,0,0,0,0,0,0,0,0,0,0,0,0,0],"split_type":[0,0,0,0,0,0,0,0,0,0,0,0,0,0,0,0,0,0,0,0,0,0,0,0,0,0,0,0,0,0,0,0,0,0,0,0,0,0,0,0,0,0,0,0,0,0,0,0,0],"sum_hessian":[1.4993519E6,6.0350206E5,8.9584975E5,6.019077E5,1.5943787E3,1.6543312E5,7.304166E5,1.0047756E5,5.0143012E5,1.5198225E5,1.3450877E4,4.400326E4,5.64743E4,1.8432939E5,3.1710072E5,1.3434584E4,1.6293522E1,1.5236153E4,2.876711E4,7.242793E2,5.575002E4,1.8140612E5,2.9232673E3,1.441324E4,8.2291266E2,1.6844456E3,2.7082664E4,5.3191376E2,1.9236557E2,5.1089914E4,4.660107E3,1.3020646E5,5.1199668E4,1.6414641E3,1.2818031E3,8.699048E1,7.359222E2,5.7605705E1,1.6268398E3,2.6272053E4,8.1061206E2,1.344598E2,5.790577E1,4.1309653E3,5.2914136E2,1.0314553E3,5.016821E4,1.5769646E2,1.1241067E3],"tree_param":{"num_deleted":"0","num_feature":"14","num_nodes":"49","size_leaf_vector":"1"}},{"base_weights":[7.6840966E-5,-1.1687634E0,7.8841054E-1,-1.1750138E0,1.1926812E-1,-9.995447E-1,1.19336866E-1,-1.1111192E0,-1.1878686E0,-1.193363E-1,1.1902957E0,-1.0251144E0,-1.1786872E0,-1.1780832E0,-1.1935599E-1,1.1932178E-1,-1.1306035E-1,-1.0714061E0,-6.844478E-1,-7.8424346E-1,-1.1838145E0,-1.1817979E0,-9.5070153E-1,-1.1978077E0,-9.908004E-1,1.1218029E0,-1.0445046E0,-1.19464695E-1,3.3452058E-1,-1.1942219E-1,-1.0705395E0,-1.1938006E-1,-1.1513543E0,-1.2114658E-1,-6.266437E-1,-1.1941743E-1,-1.2597536E-1,5.6719907E-2,-1.0658951E-1,-1.742575E-1,1.1740702E-1,-5.0275713E-2,-1.2125694E-1,9.801971E-2,-1.404255E-1,-1.1996424E-1,-1.3553378E-2,-4.9098473E-2,-1.1655723E-1,2.72213E-1,-1.2198079E-1],"categories":[],"categories_nodes":[],"categories_segments":[],"categories_sizes":[],"default_left":[0,0,0,0,0,0,0,0,0,0,0,0,0,0,0,0,0,0,0,0,0,0,0,0,0,0,0,0,0,0,0,0,0,0,0,0,0,0,0,0,0,0,0,0,0,0,0,0,0,0,0],"id":11,"left_children":[1,3,5,7,-1,9,-1,11,13,-1,15,17,19,21,-1,-1,-1,23,25,27,29,31,33,35,37,39,41,-1,43,-1,45,-1,47,-1,49,-1,-1,-1,-1,-1,-1,-1,-1,-1,-1,-1,-1,-1,-1,-1,-1],"loss_changes":[1.2755816E6,8.2314375E3,5.985995E5,4.554375E2,0E0,6.4800094E4,0E0,5.401797E2,2.44375E1,0E0,8.5541016E1,6.4578516E2,1.04578125E2,1.4270312E2,0E0,0E0,0E0,3.6652734E2,3.1925815E3,3.0911334E2,5.9429688E1,5.9875E1,2.3102344E2,1.6582031E0,2.5796016E3,1.2422595E2,3.719712E2,0E0,2.0484488E2,0E0,5.2406055E2,0E0,4.44625E2,0E0,2.4368135E3,0E0,0E0,0E0,0E0,0E0,0E0,0E0,0E0,0E0,0E0,0E0,0E0,0E0,0E0,0E0,0E0],"parents":[2147483647,0,0,1,1,2,2,3,3,5,5,7,7,8,8,10,10,11,11,12,12,13,13,17,17,18,18,19,19,20,20,21,21,22,22,23,23,24,24,25,25,26,26,28,28,30,30,32,32,34,34],"right_children":[2,4,6,8,-1,10,-1,12,14,-1,16,18,20,22,-1,-1,-1,24,26,28,30,32,34,36,38,40,42,-1,44,-1,46,-1,48,-1,50,-1,-1,-1,-1,-1,-1,-1,-1,-1,-1,-1,-1,-1,-1,-1,-1],"split_conditions":[3.3158743E-1,1E0,8.7347186E-1,-1.0423685E0,1.1926812E-1,1.1958125E0,1.19336866E-1,-2.887606E-1,-7.988283E-2,-1.193363E-1,-1.5157002E-1,3.6884296E-1,-1.6535822E0,-8.690827E-2,-1.1935599E-1,1.1932178E-1,-1.1306035E-1,-3.0760407E-1,-2.4669977E-1,1E0,1E0,8.029588E-2,1.7544249E-1,1E0,-3.098411E-1,-2.2404353E-1,1.0603347E-1,-1.19464695E-1,-2.87197E-1,-1.1942219E-1,2.5792223E-1,-1.1938006E-1,8.5233055E-2,-1.2114658E-1,1.7866148E-1,-1.1941743E-1,-1.2597536E-1,5.6719907E-2,-1.0658951E-1,-1.742575E-1,1.1740702E-1,-5.0275713E-2,-1.2125694E-1,9.801971E-2,-1.404255E-1,-1.1996424E-1,-1.3553378E-2,-4.9098473E-2,-1.1655723E-1,2.72213E-1,-1.2198079E-1],"split_indices":[7,6,8,0,0,1,0,2,0,0,5,1,0,0,0,0,0,5,4,10,13,1,7,10,4,5,5,0,2,0,7,0,1,0,7,0,0,0,0,0,0,0,0,0,0,0,0,0,0,0,0],"split_type":[0,0,0,0,0,0,0,0,0,0,0,0,0,0,0,0,0,0,0,0,0,0,0,0,0,0,0,0,0,0,0,0,0,0,0,0,0,0,0,0,0,0,0,0,0,0,0,0,0,0,0],"sum_hessian":[1.3843388E6,5.576001E5,8.2673856E5,5.561287E5,1.4714692E3,1.5267084E5,6.7406775E5,9.31614E4,4.6296728E5,1.402574E5,1.2413438E4,4.099572E4,5.2165676E4,1.7032444E5,2.9264284E5,1.2398314E4,1.5123944E1,3.608952E4,4.906198E3,6.7136694E2,5.149431E4,1.6758255E5,2.7419011E3,1.4047356E4,2.2042164E4,8.150958E2,4.0911025E3,4.9113342E2,1.8023352E2,4.715255E4,4.341759E3,1.2016686E5,4.741568E4,1.517807E3,1.224094E3,1.3288221E4,7.591359E2,1.01326587E3,2.1028898E4,1.4027217E1,8.010686E2,9.6961005E2,3.1214924E3,1.3174692E2,4.8486603E1,3.814746E3,5.270125E2,1.00010126E3,4.641558E4,1.8365579E2,1.0404382E3],"tree_param":{"num_deleted":"0","num_feature":"14","num_nodes":"51","size_leaf_vector":"1"}},{"base_weights":[8.751598E-5,-1.1460218E0,7.740391E-1,-1.1521473E0,1.1708734E-1,-9.8132306E-1,1.1716161E-1,-1.0854676E0,-1.1656209E0,-1.17161E-1,1.168565E0,-9.9645716E-1,-1.156004E0,-1.1550385E0,-1.17178395E-1,1.1714518E-1,-1.1045801E-1,-1.1758476E0,-9.040457E-1,-7.647021E-1,-1.1611221E0,-1.1588902E0,-9.2219156E-1,-1.17237106E-1,-1.2344977E0,6.9026256E-1,-1.0091834E0,-1.17231086E-1,3.1888112E-1,-1.1723607E-1,-1.0400621E0,-1.171992E-1,-1.1257877E0,-1.18724905E-1,-6.013998E-1,-1.4291205E-1,-1.2085586E-1,-1.351342E-1,7.667159E-2,-1.0347698E-1,-2.2708006E-2,9.971892E-2,-1.2548043E-1,-1.17707014E-1,-1.2248551E-2,-4.5586653E-2,-1.1409557E-1,2.2526638E-1,-1.1943739E-1],"categories":[],"categories_nodes":[],"categories_segments":[],"categories_sizes":[],"default_left":[0,0,0,0,0,0,0,0,0,0,0,0,0,0,0,0,0,0,0,0,0,0,0,0,0,0,0,0,0,0,0,0,0,0,0,0,0,0,0,0,0,0,0,0,0,0,0,0,0],"id":12,"left_children":[1,3,5,7,-1,9,-1,11,13,-1,15,17,19,21,-1,-1,-1,23,25,27,29,31,33,-1,35,37,39,-1,41,-1,43,-1,45,-1,47,-1,-1,-1,-1,-1,-1,-1,-1,-1,-1,-1,-1,-1,-1],"loss_changes":[1.1312249E6,7.29675E3,5.312624E5,4.594375E2,0E0,5.751042E4,0E0,5.4003906E2,2.64375E1,0E0,7.630371E1,6.308047E2,9.541406E1,1.3976562E2,0E0,0E0,0E0,1.1972656E0,4.218215E3,2.7585767E2,6.3347656E1,6.565625E1,2.1699072E2,0E0,1.8376465E0,2.4409467E2,4.7212305E2,0E0,1.8407947E2,0E0,5.0781836E2,0E0,4.4485547E2,0E0,1.9665798E3,0E0,0E0,0E0,0E0,0E0,0E0,0E0,0E0,0E0,0E0,0E0,0E0,0E0,0E0],"parents":[2147483647,0,0,1,1,2,2,3,3,5,5,7,7,8,8,10,10,11,11,12,12,13,13,17,17,18,18,19,19,20,20,21,21,22,22,24,24,25,25,26,26,28,28,30,30,32,32,34,34],"right_children":[2,4,6,8,-1,10,-1,12,14,-1,16,18,20,22,-1,-1,-1,24,26,28,30,32,34,-1,36,38,40,-1,42,-1,44,-1,46,-1,48,-1,-1,-1,-1,-1,-1,-1,-1,-1,-1,-1,-1,-1,-1],"split_conditions":[3.3158743E-1,1E0,8.7347186E-1,-1.0423685E0,1.1708734E-1,1.1958125E0,1.1716161E-1,-2.887606E-1,-7.988283E-2,-1.17161E-1,-1.5157002E-1,-3.0760407E-1,-1.6535822E0,-8.690827E-2,-1.17178395E-1,1.1714518E-1,-1.1045801E-1,1E0,-3.098411E-1,1E0,1E0,8.029588E-2,1.7544249E-1,-1.17237106E-1,-3.1895262E-1,-1.4128517E-1,-1.3795899E0,-1.17231086E-1,-3.2288054E-1,-1.1723607E-1,2.5792223E-1,-1.171992E-1,8.5233055E-2,-1.18724905E-1,1.7866148E-1,-1.4291205E-1,-1.2085586E-1,-1.351342E-1,7.667159E-2,-1.0347698E-1,-2.2708006E-2,9.971892E-2,-1.2548043E-1,-1.17707014E-1,-1.2248551E-2,-4.5586653E-2,-1.1409557E-1,2.2526638E-1,-1.1943739E-1],"split_indices":[7,6,8,0,0,1,0,2,0,0,5,5,0,0,0,0,0,10,4,10,13,1,7,0,4,1,0,0,4,0,7,0,1,0,7,0,0,0,0,0,0,0,0,0,0,0,0,0,0],"split_type":[0,0,0,0,0,0,0,0,0,0,0,0,0,0,0,0,0,0,0,0,0,0,0,0,0,0,0,0,0,0,0,0,0,0,0,0,0,0,0,0,0,0,0,0,0,0,0,0,0],"sum_hessian":[1.2752884E6,5.1405197E5,7.6123644E5,5.12697E5,1.3549774E3,1.4057506E5,6.2066144E5,8.6197E4,4.265E5,1.2914488E5,1.1430177E4,3.811477E4,4.808223E4,1.570389E5,2.694611E5,1.1416164E4,1.401294E1,1.2954866E4,2.5159904E4,6.2272095E2,4.7459508E4,1.5447953E5,2.5593804E3,1.2249715E4,7.051511E2,1.5561947E3,2.3603709E4,4.5244424E2,1.7027669E2,4.3419938E4,4.0395723E3,1.10650375E5,4.382916E4,1.3999536E3,1.1594266E3,7.656717E1,6.28584E2,5.5570415E1,1.5006244E3,2.2855668E4,7.480418E2,1.19244774E2,5.103192E1,3.5145186E3,5.250537E2,9.710725E2,4.2858086E4,1.9896799E2,9.604586E2],"tree_param":{"num_deleted":"0","num_feature":"14","num_nodes":"49","size_leaf_vector":"1"}},{"base_weights":[1.0228743E-4,-1.125839E0,7.615033E-1,-1.131853E0,1.15183674E-1,-9.654284E-1,1.1526423E-1,-1.0616254E0,-1.1461173E0,-1.1526354E-1,1.149604E0,-9.686911E-1,-1.1360456E0,-1.1346761E0,-1.15279E-1,1.15246296E-1,-1.0808545E-1,-1.1564921E0,-8.7357974E-1,-7.4878776E-1,-1.1411301E0,-1.1386399E0,-8.975836E-1,-1.1546923E-1,-1.2549279E0,6.486054E-1,-9.767962E-1,-1.1527946E-1,3.0750042E-1,-1.1532938E-1,-1.0115833E0,-1.15297034E-1,-1.1025885E0,-1.1661767E-1,-5.798024E-1,-1.521044E-1,-1.1556131E-1,-1.3036005E-1,7.199692E-2,-1.00345515E-1,-2.0732753E-2,9.137794E-2,-1.3603364E-1,-1.6594348E-2,-1.175094E-1,-4.2260412E-2,-1.11883E-1,1.9446258E-1,-1.1722801E-1],"categories":[],"categories_nodes":[],"categories_segments":[],"categories_sizes":[],"default_left":[0,0,0,0,0,0,0,0,0,0,0,0,0,0,0,0,0,0,0,0,0,0,0,0,0,0,0,0,0,0,0,0,0,0,0,0,0,0,0,0,0,0,0,0,0,0,0,0,0],"id":13,"left_children":[1,3,5,7,-1,9,-1,11,13,-1,15,17,19,21,-1,-1,-1,23,25,27,29,31,33,-1,35,37,39,-1,41,-1,43,-1,45,-1,47,-1,-1,-1,-1,-1,-1,-1,-1,-1,-1,-1,-1,-1,-1],"loss_changes":[1.0052715E6,6.4811875E3,4.725268E5,4.71375E2,0E0,5.1151914E4,0E0,5.498906E2,2.86875E1,0E0,6.823633E1,6.3191406E2,8.624219E1,1.3479688E2,0E0,0E0,0E0,6.6015625E-1,3.6968535E3,2.4623462E2,6.763281E1,7.215625E1,2.0256396E2,0E0,3.5897217E0,2.0915137E2,4.517422E2,0E0,1.6322699E2,0E0,5.190996E2,0E0,4.4628125E2,0E0,1.6365823E3,0E0,0E0,0E0,0E0,0E0,0E0,0E0,0E0,0E0,0E0,0E0,0E0,0E0,0E0],"parents":[2147483647,0,0,1,1,2,2,3,3,5,5,7,7,8,8,10,10,11,11,12,12,13,13,17,17,18,18,19,19,20,20,21,21,22,22,24,24,25,25,26,26,28,28,30,30,32,32,34,34],"right_children":[2,4,6,8,-1,10,-1,12,14,-1,16,18,20,22,-1,-1,-1,24,26,28,30,32,34,-1,36,38,40,-1,42,-1,44,-1,46,-1,48,-1,-1,-1,-1,-1,-1,-1,-1,-1,-1,-1,-1,-1,-1],"split_conditions":[3.3158743E-1,1E0,8.7347186E-1,-1.0423685E0,1.15183674E-1,1.1958125E0,1.1526423E-1,-2.887606E-1,-7.988283E-2,-1.1526354E-1,-1.5157002E-1,-3.0760407E-1,-1.6535822E0,-8.690827E-2,-1.15279E-1,1.15246296E-1,-1.0808545E-1,-1.2273006E-1,-3.098411E-1,1E0,1E0,8.029588E-2,1.7544249E-1,-1.1546923E-1,-3.1350824E-1,-1.4128517E-1,-1.3795899E0,-1.1527946E-1,-2.87197E-1,-1.1532938E-1,-2.6069653E-1,-1.15297034E-1,8.5233055E-2,-1.1661767E-1,1.7866148E-1,-1.521044E-1,-1.1556131E-1,-1.3036005E-1,7.199692E-2,-1.00345515E-1,-2.0732753E-2,9.137794E-2,-1.3603364E-1,-1.6594348E-2,-1.175094E-1,-4.2260412E-2,-1.11883E-1,1.9446258E-1,-1.1722801E-1],"split_indices":[7,6,8,0,0,1,0,2,0,0,5,5,0,0,0,0,0,1,4,10,13,1,7,0,4,1,0,0,2,0,5,0,1,0,7,0,0,0,0,0,0,0,0,0,0,0,0,0,0],"split_type":[0,0,0,0,0,0,0,0,0,0,0,0,0,0,0,0,0,0,0,0,0,0,0,0,0,0,0,0,0,0,0,0,0,0,0,0,0,0,0,0,0,0,0,0,0,0,0,0,0],"sum_hessian":[1.1726096E6,4.7305978E5,6.995498E5,4.718145E5,1.2452683E3,1.29183875E5,5.7036594E5,7.966682E4,3.921477E5,1.1867969E5,1.0504188E4,3.5432953E4,4.423387E4,1.4451889E5,2.476288E5,1.0491225E4,1.2964354E1,1.1908337E4,2.3524615E4,5.751721E2,4.36587E4,1.4213873E5,2.3801475E3,1.1707006E4,2.0133107E2,1.4935282E3,2.2031088E4,4.1597827E2,1.5919385E2,3.9904074E4,3.7546255E3,1.01687305E5,4.0451438E4,1.2884564E3,1.0916912E3,5.08261E1,1.5050497E2,5.2062237E1,1.441466E3,2.1293064E4,7.3802246E2,1.1708437E2,4.2109474E1,6.086812E2,3.1459443E3,9.4427875E2,3.950716E4,2.0708052E2,8.846106E2],"tree_param":{"num_deleted":"0","num_feature":"14","num_nodes":"49","size_leaf_vector":"1"}},{"base_weights":[1.1935527E-4,-1.1078297E0,7.505238E-1,-1.1137434E0,1.135148E-1,-9.515068E-1,1.1360239E-1,-1.039424E0,-1.1289277E0,-1.1360164E-1,1.1329896E0,-9.422791E-1,-1.1181002E0,-1.1165557E0,-1.13615416E-1,1.1358278E-1,-1.059003E-1,-1.1395243E0,-8.4423137E-1,-7.3233825E-1,-1.1231996E0,-1.1206126E0,-8.761107E-1,-1.1377468E-1,-1.2267087E0,6.0895634E-1,-9.456483E-1,-1.1356624E-1,2.9324526E-1,-1.1365949E-1,-9.825765E-1,-1.1363111E-1,-1.0813068E0,-1.1477546E-1,-5.610831E-1,-1.4700094E-1,-1.1359972E-1,-1.2628354E-1,6.75432E-2,-9.734457E-2,-1.8908758E-2,9.353393E-2,-1.2104984E-1,-1.0739075E-2,-1.15070485E-1,-3.911465E-2,-1.0987475E-1,1.7243032E-1,-1.1529922E-1],"categories":[],"categories_nodes":[],"categories_segments":[],"categories_sizes":[],"default_left":[0,0,0,0,0,0,0,0,0,0,0,0,0,0,0,0,0,0,0,0,0,0,0,0,0,0,0,0,0,0,0,0,0,0,0,0,0,0,0,0,0,0,0,0,0,0,0,0,0],"id":14,"left_children":[1,3,5,7,-1,9,-1,11,13,-1,15,17,19,21,-1,-1,-1,23,25,27,29,31,33,-1,35,37,39,-1,41,-1,43,-1,45,-1,47,-1,-1,-1,-1,-1,-1,-1,-1,-1,-1,-1,-1,-1,-1],"loss_changes":[8.9495006E5,5.7668125E3,4.2108325E5,4.880625E2,0E0,4.558278E4,0E0,5.6114844E2,3.09375E1,0E0,6.1161133E1,6.357363E2,7.911719E1,1.2853125E2,0E0,0E0,0E0,2.9785156E-1,3.242123E3,2.208234E2,7.442969E1,7.9359375E1,1.8829431E2,0E0,2.867096E0,1.7946667E2,4.3220703E2,0E0,1.4717328E2,0E0,5.142063E2,0E0,4.4840234E2,0E0,1.3875356E3,0E0,0E0,0E0,0E0,0E0,0E0,0E0,0E0,0E0,0E0,0E0,0E0,0E0,0E0],"parents":[2147483647,0,0,1,1,2,2,3,3,5,5,7,7,8,8,10,10,11,11,12,12,13,13,17,17,18,18,19,19,20,20,21,21,22,22,24,24,25,25,26,26,28,28,30,30,32,32,34,34],"right_children":[2,4,6,8,-1,10,-1,12,14,-1,16,18,20,22,-1,-1,-1,24,26,28,30,32,34,-1,36,38,40,-1,42,-1,44,-1,46,-1,48,-1,-1,-1,-1,-1,-1,-1,-1,-1,-1,-1,-1,-1,-1],"split_conditions":[3.3158743E-1,1E0,8.7347186E-1,-1.0423685E0,1.135148E-1,1.1958125E0,1.1360239E-1,-2.887606E-1,-7.988283E-2,-1.1360164E-1,-1.5157002E-1,-3.0760407E-1,-1.6535822E0,-8.690827E-2,-1.13615416E-1,1.1358278E-1,-1.059003E-1,-1.4128517E-1,-3.098411E-1,1E0,1E0,8.029588E-2,1.7544249E-1,-1.1377468E-1,-3.098411E-1,-1.4128517E-1,-1.3795899E0,-1.1356624E-1,-3.2288054E-1,-1.1365949E-1,-9.38594E-2,-1.1363111E-1,8.5233055E-2,-1.1477546E-1,1.7866148E-1,-1.4700094E-1,-1.1359972E-1,-1.2628354E-1,6.75432E-2,-9.734457E-2,-1.8908758E-2,9.353393E-2,-1.2104984E-1,-1.0739075E-2,-1.15070485E-1,-3.911465E-2,-1.0987475E-1,1.7243032E-1,-1.1529922E-1],"split_indices":[7,6,8,0,0,1,0,2,0,0,5,5,0,0,0,0,0,1,4,10,13,1,7,0,4,1,0,0,4,0,1,0,1,0,7,0,0,0,0,0,0,0,0,0,0,0,0,0,0],"split_type":[0,0,0,0,0,0,0,0,0,0,0,0,0,0,0,0,0,0,0,0,0,0,0,0,0,0,0,0,0,0,0,0,0,0,0,0,0,0,0,0,0,0,0,0,0,0,0,0,0],"sum_hessian":[1.0764226E6,4.3466003E5,6.417626E5,4.3351753E5,1.1424932E3,1.1851272E5,5.2324988E5,7.355769E4,3.5995984E5,1.08876E5,9.636722E3,3.2921312E4,4.063638E4,1.3278402E5,2.2717583E5,9.624741E3,1.197992E1,1.0927515E4,2.1993799E4,5.320456E2,4.0104332E4,1.3057716E5,2.2068594E3,1.0722942E4,2.0457242E2,1.4344719E3,2.0559326E4,3.8179312E2,1.5025247E2,3.6609902E4,3.49443E3,9.329005E4,3.728711E4,1.1836077E3,1.0232518E3,5.14286E1,1.5314381E2,4.8580044E1,1.385892E3,1.9830436E4,7.2889014E2,1.05557655E2,4.4694817E1,5.6338574E2,2.9310442E3,9.196138E2,3.6367496E4,2.1010692E2,8.1314484E2],"tree_param":{"num_deleted":"0","num_feature":"14","num_nodes":"49","size_leaf_vector":"1"}},{"base_weights":[1.3791461E-4,-1.091671E0,7.408727E-1,-1.0974942E0,1.1204618E-1,-9.392691E-1,1.12141624E-1,-1.0186795E0,-1.1137004E0,-1.1214081E-1,1.118378E0,-9.168735E-1,-1.1021692E0,-1.1219364E-1,-1.1009576E0,1.12120144E-1,-1.0386749E-1,-1.1245978E-1,-8.1570053E-1,-1.1161007E0,-9.58462E-1,-1.0668807E0,-1.1216805E-1,5.7109964E-1,-9.154035E-1,-6.69568E-1,-1.1219173E-1,-1.12703696E-1,-4.2674545E-2,-1.0772249E0,-5.4877037E-1,-1.2276679E-1,6.3289285E-2,-9.7211406E-2,-5.1590305E-2,-1.1175555E-1,2.8291939E-2,2.0535198E-1,-1.3913904E-1,-9.654384E-2,-1.1225243E-1,2.8899495E-2,-1.14781275E-1],"categories":[],"categories_nodes":[],"categories_segments":[],"categories_sizes":[],"default_left":[0,0,0,0,0,0,0,0,0,0,0,0,0,0,0,0,0,0,0,0,0,0,0,0,0,0,0,0,0,0,0,0,0,0,0,0,0,0,0,0,0,0,0],"id":15,"left_children":[1,3,5,7,-1,9,-1,11,13,-1,15,17,19,-1,21,-1,-1,-1,23,25,27,29,-1,31,33,35,-1,-1,37,39,41,-1,-1,-1,-1,-1,-1,-1,-1,-1,-1,-1,-1],"loss_changes":[7.979886E5,5.1389375E3,3.7586428E5,5.07E2,0E0,4.068757E4,0E0,5.7575E2,3.3375E1,0E0,5.493164E1,6.417617E2,7.35625E1,0E0,9.03125E1,0E0,0E0,0E0,2.8444238E3,8.749219E1,5.0963354E2,2.6214062E2,0E0,1.541836E2,4.342412E2,1.877952E2,0E0,0E0,1.456844E3,2.4229297E2,4.8292737E2,0E0,0E0,0E0,0E0,0E0,0E0,0E0,0E0,0E0,0E0,0E0,0E0],"parents":[2147483647,0,0,1,1,2,2,3,3,5,5,7,7,8,8,10,10,11,11,12,12,14,14,18,18,19,19,20,20,21,21,23,23,24,24,25,25,28,28,29,29,30,30],"right_children":[2,4,6,8,-1,10,-1,12,14,-1,16,18,20,-1,22,-1,-1,-1,24,26,28,30,-1,32,34,36,-1,-1,38,40,42,-1,-1,-1,-1,-1,-1,-1,-1,-1,-1,-1,-1],"split_conditions":[3.3158743E-1,1E0,8.7347186E-1,-1.0423685E0,1.1204618E-1,1.1958125E0,1.12141624E-1,-2.887606E-1,1E0,-1.1214081E-1,-1.5157002E-1,-3.0760407E-1,1E0,-1.1219364E-1,-7.988283E-2,1.12120144E-1,-1.0386749E-1,-1.1245978E-1,-3.098411E-1,-1.6535822E0,2.5792223E-1,-8.690827E-2,-1.1216805E-1,-1.4128517E-1,2.6518893E-1,1E0,-1.1219173E-1,-1.12703696E-1,2.6036975E-1,-4.3144066E-2,-1.4128517E-1,-1.2276679E-1,6.3289285E-2,-9.7211406E-2,-5.1590305E-2,-1.1175555E-1,2.8291939E-2,2.0535198E-1,-1.3913904E-1,-9.654384E-2,-1.1225243E-1,2.8899495E-2,-1.14781275E-1],"split_indices":[7,6,8,0,0,1,0,2,10,0,5,5,13,0,0,0,0,0,4,0,7,0,0,1,7,10,0,0,7,7,1,0,0,0,0,0,0,0,0,0,0,0,0],"split_type":[0,0,0,0,0,0,0,0,0,0,0,0,0,0,0,0,0,0,0,0,0,0,0,0,0,0,0,0,0,0,0,0,0,0,0,0,0,0,0,0,0,0,0],"sum_hessian":[9.86703E5,3.9883625E5,5.8786675E5,3.9778962E5,1.0466373E3,1.0856016E5,4.793066E5,6.785537E4,3.2993425E5,9.973248E4,8.827673E3,3.0579363E4,3.7276E4,2.0035364E5,1.2958062E5,8.816613E3,1.1059808E1,1.0012332E4,2.0567031E4,3.39755E4,3.3005005E3,4.9021383E4,8.0559234E4,1.379157E3,1.9187875E4,4.383672E2,3.3537133E4,2.78721E3,5.132904E2,4.806076E4,9.6062006E2,4.5178104E1,1.3339789E3,1.6801418E4,2.3864568E3,2.9802332E2,1.4034389E2,2.007536E2,3.1253677E2,1.3865868E4,3.4194895E4,4.007232E2,5.5989685E2],"tree_param":{"num_deleted":"0","num_feature":"14","num_nodes":"43","size_leaf_vector":"1"}},{"base_weights":[1.5786939E-4,-1.0769914E0,7.323621E-1,-1.0827316E0,1.10749386E-1,-9.2847776E-1,1.1085355E-1,-9.991627E-1,-1.1000333E0,-1.1085268E-1,1.1054858E0,-8.920411E-1,-1.0882673E0,-1.0853631E0,-1.1086345E-1,1.1083001E-1,-1.01957954E-1,-1.1114707E-1,-7.8754574E-1,-1.1028473E0,-9.391951E-1,-1.0897936E0,-8.300059E-1,5.3488666E-1,-8.855466E-1,-6.4483404E-1,-1.1089753E-1,-1.1134558E-1,-4.307573E-2,-1.10875264E-1,-1.0428643E0,-1.1276976E-1,-5.108938E-1,-1.1970438E-1,5.92208E-2,-9.1706194E-2,-8.603751E-3,-1.10442914E-1,2.5701499E-2,1.8213141E-1,-1.3419403E-1,-2.7859235E-2,-1.06363595E-1,1.7918913E-1,-1.1317366E-1],"categories":[],"categories_nodes":[],"categories_segments":[],"categories_sizes":[],"default_left":[0,0,0,0,0,0,0,0,0,0,0,0,0,0,0,0,0,0,0,0,0,0,0,0,0,0,0,0,0,0,0,0,0,0,0,0,0,0,0,0,0,0,0,0,0],"id":16,"left_children":[1,3,5,7,-1,9,-1,11,13,-1,15,17,19,21,-1,-1,-1,-1,23,25,27,29,31,33,35,37,-1,-1,39,-1,41,-1,43,-1,-1,-1,-1,-1,-1,-1,-1,-1,-1,-1,-1],"loss_changes":[7.124705E5,4.5850625E3,3.3599162E5,5.26125E2,0E0,3.63711E4,0E0,5.960703E2,3.696875E1,0E0,4.9433594E1,6.5052344E2,7.317578E1,1.25453125E2,0E0,0E0,0E0,0E0,2.494996E3,8.655469E1,4.760022E2,9.653125E1,1.8077393E2,1.3260837E2,4.5145605E2,1.7143253E2,0E0,0E0,1.2068113E3,0E0,5.0146094E2,0E0,1.3218752E3,0E0,0E0,0E0,0E0,0E0,0E0,0E0,0E0,0E0,0E0,0E0,0E0],"parents":[2147483647,0,0,1,1,2,2,3,3,5,5,7,7,8,8,10,10,11,11,12,12,13,13,18,18,19,19,20,20,21,21,22,22,23,23,24,24,25,25,28,28,30,30,32,32],"right_children":[2,4,6,8,-1,10,-1,12,14,-1,16,18,20,22,-1,-1,-1,-1,24,26,28,30,32,34,36,38,-1,-1,40,-1,42,-1,44,-1,-1,-1,-1,-1,-1,-1,-1,-1,-1,-1,-1],"split_conditions":[3.3158743E-1,1E0,8.7347186E-1,-1.0423685E0,1.10749386E-1,1.1958125E0,1.1085355E-1,-2.887606E-1,-7.988283E-2,-1.1085268E-1,-1.5157002E-1,-3.0760407E-1,1E0,-8.690827E-2,-1.1086345E-1,1.1083001E-1,-1.01957954E-1,-1.1114707E-1,-3.098411E-1,-1.6535822E0,2.5792223E-1,8.029588E-2,-1.8527697E-1,-1.4128517E-1,-1.3795899E0,1E0,-1.1089753E-1,-1.1134558E-1,2.6036975E-1,-1.10875264E-1,8.5233055E-2,-1.1276976E-1,-1.831459E-1,-1.1970438E-1,5.92208E-2,-9.1706194E-2,-8.603751E-3,-1.10442914E-1,2.5701499E-2,1.8213141E-1,-1.3419403E-1,-2.7859235E-2,-1.06363595E-1,1.7918913E-1,-1.1317366E-1],"split_indices":[7,6,8,0,0,1,0,2,0,0,5,5,13,0,0,0,0,0,4,0,7,1,4,1,0,10,0,0,7,0,1,0,4,0,0,0,0,0,0,0,0,0,0,0,0],"split_type":[0,0,0,0,0,0,0,0,0,0,0,0,0,0,0,0,0,0,0,0,0,0,0,0,0,0,0,0,0,0,0,0,0,0,0,0,0,0,0,0,0,0,0,0,0],"sum_hessian":[9.033536E5,3.6556647E5,5.377871E5,3.646089E5,9.5756744E2,9.931241E4,4.3847475E5,6.254903E4,3.0205988E5,9.123649E4,8.0759146E3,2.8407969E4,3.4141062E4,1.11690695E5,1.9036917E5,8.0657114E3,1.0203013E1,9.161052E3,1.9246918E4,3.109355E4,3.047511E3,1.0978269E5,1.9080092E3,1.3276077E3,1.7919309E4,4.1191843E2,3.0681633E4,2.5511655E3,4.9634564E2,7.817717E4,3.1605512E4,9.858243E2,9.221849E2,4.189486E1,1.2857128E3,1.7239605E4,6.7970325E2,2.7271457E2,1.3920386E2,2.0363942E2,2.927062E2,8.366395E2,3.0768873E4,1.9542868E2,7.267562E2],"tree_param":{"num_deleted":"0","num_feature":"14","num_nodes":"45","size_leaf_vector":"1"}},{"base_weights":[1.7808621E-4,-1.0637218E0,7.248373E-1,-1.0693862E0,1.0960072E-1,-9.1893554E-1,1.0971465E-1,-9.8061347E-1,-1.087903E0,-1.0971369E-1,1.0940775E0,-8.6782014E-1,-1.0759013E0,-1.0720196E0,-1.0972341E-1,1.0968878E-1,-1.001472E-1,-3.6397925E-1,-9.1876787E-1,-1.0910504E0,-9.2222005E-1,-1.0765127E0,-8.148344E-1,9.727571E-1,-1.1233026E-1,-1.1029904E0,-8.228059E-1,-6.204358E-1,-1.0975319E-1,-1.1014471E-1,-4.3034624E-2,-1.0973369E-1,-1.025295E0,-1.1144274E-1,-4.984943E-1,-1.2803914E-2,2.4102262E-1,-1.1326634E-1,-1.0972196E-1,3.2405278E-1,-8.690029E-2,-1.0927524E-1,2.3327487E-2,1.6478771E-1,-1.2998638E-1,-2.5577638E-2,-1.04765594E-1,1.6468358E-1,-1.1180969E-1],"categories":[],"categories_nodes":[],"categories_segments":[],"categories_sizes":[],"default_left":[0,0,0,0,0,0,0,0,0,0,0,0,0,0,0,0,0,0,0,0,0,0,0,0,0,0,0,0,0,0,0,0,0,0,0,0,0,0,0,0,0,0,0,0,0,0,0,0,0],"id":17,"left_children":[1,3,5,7,-1,9,-1,11,13,-1,15,17,19,21,-1,-1,-1,23,25,27,29,31,33,35,-1,37,39,41,-1,-1,43,-1,45,-1,47,-1,-1,-1,-1,-1,-1,-1,-1,-1,-1,-1,-1,-1,-1],"loss_changes":[6.3690644E5,4.0959375E3,3.0073603E5,5.476875E2,0E0,3.2554445E4,0E0,6.184219E2,3.978125E1,0E0,4.4564453E1,6.771953E2,7.171094E1,1.1728906E2,0E0,0E0,0E0,2.4630303E3,4.228379E2,8.602344E1,4.4257422E2,1.0607031E2,1.6624182E2,1.3915352E3,0E0,1.6210938E-1,2.9619678E3,1.5689268E2,0E0,0E0,1.01522107E3,0E0,4.9987305E2,0E0,1.1421592E3,0E0,0E0,0E0,0E0,0E0,0E0,0E0,0E0,0E0,0E0,0E0,0E0,0E0,0E0],"parents":[2147483647,0,0,1,1,2,2,3,3,5,5,7,7,8,8,10,10,11,11,12,12,13,13,17,17,18,18,19,19,20,20,21,21,22,22,23,23,25,25,26,26,27,27,30,30,32,32,34,34],"right_children":[2,4,6,8,-1,10,-1,12,14,-1,16,18,20,22,-1,-1,-1,24,26,28,30,32,34,36,-1,38,40,42,-1,-1,44,-1,46,-1,48,-1,-1,-1,-1,-1,-1,-1,-1,-1,-1,-1,-1,-1,-1],"split_conditions":[3.3158743E-1,1E0,8.7347186E-1,-1.0423685E0,1.0960072E-1,1.1958125E0,1.0971465E-1,-2.887606E-1,-7.988283E-2,-1.0971369E-1,-1.5157002E-1,-5.0524735E-1,1E0,-8.690827E-2,-1.0972341E-1,1.0968878E-1,-1.001472E-1,1.2036131E-1,-2.6013973E-1,-1.6535822E0,2.5792223E-1,8.029588E-2,-1.8527697E-1,9.910243E-2,-1.1233026E-1,1E0,-2.591272E-1,1E0,-1.0975319E-1,-1.1014471E-1,2.6036975E-1,-1.0973369E-1,8.5233055E-2,-1.1144274E-1,-1.831459E-1,-1.2803914E-2,2.4102262E-1,-1.1326634E-1,-1.0972196E-1,3.2405278E-1,-8.690029E-2,-1.0927524E-1,2.3327487E-2,1.6478771E-1,-1.2998638E-1,-2.5577638E-2,-1.04765594E-1,1.6468358E-1,-1.1180969E-1],"split_indices":[7,6,8,0,0,1,0,2,0,0,5,7,13,0,0,0,0,5,1,0,7,1,4,5,0,12,1,10,0,0,7,0,1,0,4,0,0,0,0,0,0,0,0,0,0,0,0,0,0],"split_type":[0,0,0,0,0,0,0,0,0,0,0,0,0,0,0,0,0,0,0,0,0,0,0,0,0,0,0,0,0,0,0,0,0,0,0,0,0,0,0,0,0,0,0,0,0,0,0,0,0],"sum_hessian":[8.26114E5,3.3471122E5,4.9140275E5,3.3383616E5,8.7506836E2,9.074691E4,4.0065584E5,5.7625273E4,2.7621088E5,8.33673E4,7.3796104E3,2.6393312E4,3.123196E4,1.02259734E5,1.7395114E5,7.3702026E3,9.407697E0,2.4245183E3,2.3968795E4,2.8423982E4,2.8079785E3,1.0050077E5,1.7589633E3,8.782096E2,1.5463086E3,8.205616E3,1.576318E4,3.8746564E2,2.8036516E4,2.3322773E3,4.757011E2,7.143579E4,2.906498E4,9.02099E2,8.5686426E2,4.9786304E2,3.8034656E2,1.3042147E3,6.9014014E3,1.7642314E2,1.5586756E4,2.4927428E2,1.3819135E2,2.0269215E2,2.7300894E2,8.2108093E2,2.82439E4,1.9164594E2,6.652183E2],"tree_param":{"num_deleted":"0","num_feature":"14","num_nodes":"49","size_leaf_vector":"1"}},{"base_weights":[1.8847005E-4,-1.0510232E0,7.181675E-1,-1.0566132E0,1.0858041E-1,-9.104767E-1,1.0870514E-1,-9.599633E-1,-1.0770001E0,-1.08704105E-1,1.083956E0,-8.387018E-1,-1.064853E0,-1.0597954E0,-1.0871293E-1,1.0867675E-1,-9.841466E-2,-1.0904079E-1,-7.248425E-1,-6.451901E-1,-1.0708624E0,-1.0883977E-1,-1.017616E0,5.5174184E-1,-8.3339757E-1,-1.084605E-1,2.115582E-1,-1.0873886E-1,-9.041881E-1,-8.111896E-1,-1.0514579E0,-1.1494613E-1,6.0007274E-2,-9.019824E-2,-3.724693E-2,8.1567466E-2,-1.3498843E-1,-1.0906886E-1,-3.1198536E-3,3.276557E-1,-1.0896482E-1,-1.065436E-1,-4.2797655E-2],"categories":[],"categories_nodes":[],"categories_segments":[],"categories_sizes":[],"default_left":[0,0,0,0,0,0,0,0,0,0,0,0,0,0,0,0,0,0,0,0,0,0,0,0,0,0,0,0,0,0,0,0,0,0,0,0,0,0,0,0,0,0,0],"id":18,"left_children":[1,3,5,7,-1,9,-1,11,13,-1,15,17,19,21,-1,-1,-1,-1,23,25,27,-1,29,31,33,-1,35,-1,37,39,41,-1,-1,-1,-1,-1,-1,-1,-1,-1,-1,-1,-1],"loss_changes":[5.6977825E5,3.6606562E3,2.6948647E5,6.0103125E2,0E0,2.9171516E4,0E0,6.7623047E2,4.28125E1,0E0,4.0243164E1,7.069746E2,7.128906E1,1.11765625E2,0E0,0E0,0E0,0E0,2.3573076E3,1.5287115E2,7.6521484E1,0E0,2.6333203E2,1.1032889E2,4.951836E2,0E0,1.3155064E2,0E0,4.1418408E2,6.071534E3,2.8266406E2,0E0,0E0,0E0,0E0,0E0,0E0,0E0,0E0,0E0,0E0,0E0,0E0],"parents":[2147483647,0,0,1,1,2,2,3,3,5,5,7,7,8,8,10,10,11,11,12,12,13,13,18,18,19,19,20,20,22,22,23,23,24,24,26,26,28,28,29,29,30,30],"right_children":[2,4,6,8,-1,10,-1,12,14,-1,16,18,20,22,-1,-1,-1,-1,24,26,28,-1,30,32,34,-1,36,-1,38,40,42,-1,-1,-1,-1,-1,-1,-1,-1,-1,-1,-1,-1],"split_conditions":[3.3158743E-1,1E0,8.7347186E-1,-1.0423685E0,1.0858041E-1,1.1958125E0,1.0870514E-1,-2.887606E-1,-7.988283E-2,-1.08704105E-1,-1.5157002E-1,-3.0760407E-1,-1.6535822E0,1E0,-1.0871293E-1,1.0867675E-1,-9.841466E-2,-1.0904079E-1,-3.098411E-1,1E0,1E0,-1.0883977E-1,-3.2288054E-1,-1.4128517E-1,2.6518893E-1,-1.084605E-1,-2.87197E-1,-1.0873886E-1,2.5792223E-1,-2.887606E-1,-8.690827E-2,-1.1494613E-1,6.0007274E-2,-9.019824E-2,-3.724693E-2,8.1567466E-2,-1.3498843E-1,-1.0906886E-1,-3.1198536E-3,3.276557E-1,-1.0896482E-1,-1.065436E-1,-4.2797655E-2],"split_indices":[7,6,8,0,0,1,0,2,0,0,5,5,0,10,0,0,0,0,4,10,13,0,4,1,7,0,2,0,7,2,0,0,0,0,0,0,0,0,0,0,0,0,0],"split_type":[0,0,0,0,0,0,0,0,0,0,0,0,0,0,0,0,0,0,0,0,0,0,0,0,0,0,0,0,0,0,0,0,0,0,0,0,0,0,0,0,0,0,0],"sum_hessian":[7.549232E5,3.063653E5,4.4855788E5,3.0556644E5,7.9886194E2,8.283501E4,3.6572288E5,5.3235637E4,2.523308E5,7.609856E4,6.7364434E3,2.469503E4,2.854061E4,9.3545195E4,1.5878561E5,6.727772E3,8.671429E0,7.688862E3,1.7006168E4,4.044572E2,2.8136152E4,5.572942E4,3.7815773E4,1.3324742E3,1.5673693E4,2.6716556E2,1.3729166E2,2.5593018E4,2.543134E3,5.3298716E3,3.24859E4,3.6180218E1,1.296294E3,1.3642735E4,2.030958E3,9.933638E1,3.7955273E1,2.0952644E3,4.4786957E2,3.3923074E2,4.9906406E3,3.1772861E4,7.1304016E2],"tree_param":{"num_deleted":"0","num_feature":"14","num_nodes":"43","size_leaf_vector":"1"}},{"base_weights":[1.8875231E-4,-1.0397007E0,7.122425E-1,-1.0452243E0,1.07671715E-1,-9.029623E-1,1.0780841E-1,-9.421898E-1,-1.067159E0,-1.0780727E-1,1.0749544E0,-8.1496406E-1,-1.0542423E0,-1.0485319E0,-1.078153E-1,1.0777717E-1,-9.674292E-2,-1.0811603E-1,-6.979068E-1,-1.0713576E0,-8.846702E-1,-1.0535824E0,-7.6971173E-1,5.161106E-1,-8.041835E-1,-5.8389074E-1,-1.0783781E-1,-8.1954144E-2,-1.0957158E0,-1.0783309E-1,-9.933836E-1,-1.094596E-1,-4.4167832E-1,5.5475265E-2,-1.4236632E-1,-6.8379514E-2,-1.0991903E-1,1.4312048E-2,-1.12276636E-1,-1.1697846E-1,1.6888171E-1,-1.0796256E-1,-1.2692557E-1,-2.261658E-2,-1.0185211E-1,1.5617417E-1,-1.0993736E-1],"categories":[],"categories_nodes":[],"categories_segments":[],"categories_sizes":[],"default_left":[0,0,0,0,0,0,0,0,0,0,0,0,0,0,0,0,0,0,0,0,0,0,0,0,0,0,0,0,0,0,0,0,0,0,0,0,0,0,0,0,0,0,0,0,0,0,0],"id":19,"left_children":[1,3,5,7,-1,9,-1,11,13,-1,15,17,19,21,-1,-1,-1,-1,23,25,27,29,31,33,35,37,-1,39,41,-1,43,-1,45,-1,-1,-1,-1,-1,-1,-1,-1,-1,-1,-1,-1,-1,-1],"loss_changes":[5.1031384E5,3.2756562E3,2.4172805E5,6.3040625E2,0E0,2.6166465E4,0E0,6.9833984E2,4.603125E1,0E0,3.6399414E1,7.150703E2,7.4728516E1,1.1963281E2,0E0,0E0,0E0,0E0,2.0594395E3,8.041016E1,4.058589E2,1.24078125E2,1.620788E2,9.712451E1,5.204199E2,1.3272452E2,0E0,9.649989E2,3.9274902E0,0E0,4.720078E2,0E0,1.0040178E3,0E0,0E0,0E0,0E0,0E0,0E0,0E0,0E0,0E0,0E0,0E0,0E0,0E0,0E0],"parents":[2147483647,0,0,1,1,2,2,3,3,5,5,7,7,8,8,10,10,11,11,12,12,13,13,18,18,19,19,20,20,21,21,22,22,23,23,24,24,25,25,27,27,28,28,30,30,32,32],"right_children":[2,4,6,8,-1,10,-1,12,14,-1,16,18,20,22,-1,-1,-1,-1,24,26,28,30,32,34,36,38,-1,40,42,-1,44,-1,46,-1,-1,-1,-1,-1,-1,-1,-1,-1,-1,-1,-1,-1,-1],"split_conditions":[3.3158743E-1,1E0,8.7347186E-1,-1.0423685E0,1.07671715E-1,1.1958125E0,1.0780841E-1,-2.887606E-1,-7.988283E-2,-1.0780727E-1,-1.5157002E-1,-3.0760407E-1,1E0,-8.690827E-2,-1.078153E-1,1.0777717E-1,-9.674292E-2,-1.0811603E-1,-3.098411E-1,-1.6535822E0,-2.6069653E-1,8.029588E-2,-1.8527697E-1,-1.4357934E0,3.045173E-1,-2.87197E-1,-1.0783781E-1,-1.7225873E-1,2.5792223E-1,-1.0783309E-1,8.5233055E-2,-1.094596E-1,-1.831459E-1,5.5475265E-2,-1.4236632E-1,-6.8379514E-2,-1.0991903E-1,1.4312048E-2,-1.12276636E-1,-1.1697846E-1,1.6888171E-1,-1.0796256E-1,-1.2692557E-1,-2.261658E-2,-1.0185211E-1,1.5617417E-1,-1.0993736E-1],"split_indices":[7,6,8,0,0,1,0,2,0,0,5,5,13,0,0,0,0,0,4,0,5,1,4,0,5,2,0,4,7,0,1,0,4,0,0,0,0,0,0,0,0,0,0,0,0,0,0],"split_type":[0,0,0,0,0,0,0,0,0,0,0,0,0,0,0,0,0,0,0,0,0,0,0,0,0,0,0,0,0,0,0,0,0,0,0,0,0,0,0,0,0,0,0,0,0,0,0],"sum_hessian":[6.891855E5,2.8011E5,4.0907553E5,2.7938134E5,7.286374E2,7.554407E4,3.3353147E5,4.9045133E4,2.3033622E5,6.940033E4,6.1437446E3,2.2971385E4,2.6073748E4,8.552611E4,1.4481011E5,6.1357534E3,7.99138E0,7.01364E3,1.5957744E4,2.3678494E4,2.3952542E3,8.400174E4,1.524362E3,1.2842031E3,1.4673541E4,3.3737274E2,2.3341121E4,4.9893454E2,1.8963197E3,5.9516754E4,2.4484992E4,7.646831E2,7.5967896E2,1.2598204E3,2.4382757E1,1.0423264E4,4.2502764E3,1.4392891E2,1.9344383E2,3.0927707E2,1.8965747E2,1.7420251E3,1.5429459E2,7.7710614E2,2.3707885E4,1.874151E2,5.7226385E2],"tree_param":{"num_deleted":"0","num_feature":"14","num_nodes":"47","size_leaf_vector":"1"}},{"base_weights":[2.1376045E-4,-1.0291655E0,7.0696884E-1,-1.0346267E0,1.0686038E-1,-8.9627373E-1,1.0701032E-1,-9.2496234E-1,-1.058203E0,-1.0700907E-1,1.0669316E0,-7.911801E-1,-1.0452056E0,-1.0379894E0,-1.0701644E-1,1.06975935E-1,-9.511722E-2,-1.076038E-1,-6.7196095E-1,-1.0627637E0,-8.723314E-1,-1.0713657E-1,-9.891553E-1,2.6691482E0,-7.174271E-1,-5.566891E-1,-1.0703583E-1,-8.080184E-2,-1.085863E0,-8.408399E-1,-1.0514165E0,-1.10663585E-1,5.062361E-1,-2.098872E-2,-8.895143E-2,-1.0667541E-1,2.2519806E-2,-1.1527003E-1,1.5744253E-1,-1.0713692E-1,-1.2382934E-1,9.3496494E-2,-9.8764084E-2,-1.0712756E-1,-2.7340112E-2],"categories":[],"categories_nodes":[],"categories_segments":[],"categories_sizes":[],"default_left":[0,0,0,0,0,0,0,0,0,0,0,0,0,0,0,0,0,0,0,0,0,0,0,0,0,0,0,0,0,0,0,0,0,0,0,0,0,0,0,0,0,0,0,0,0],"id":20,"left_children":[1,3,5,7,-1,9,-1,11,13,-1,15,17,19,21,-1,-1,-1,-1,23,25,27,-1,29,31,33,35,-1,37,39,41,43,-1,-1,-1,-1,-1,-1,-1,-1,-1,-1,-1,-1,-1,-1],"loss_changes":[4.5739366E5,2.9332188E3,2.170233E5,6.5903125E2,0E0,2.3492059E4,0E0,7.2591016E2,4.9671875E1,0E0,3.2972656E1,7.256504E2,7.128125E1,1.26296875E2,0E0,0E0,0E0,0E0,2.292808E3,8.238672E1,3.7157983E2,0E0,2.9217773E2,1.8370557E3,1.2993799E3,1.2838303E2,0E0,8.326392E2,2.4992676E0,2.4483809E3,3.4500977E2,0E0,0E0,0E0,0E0,0E0,0E0,0E0,0E0,0E0,0E0,0E0,0E0,0E0,0E0],"parents":[2147483647,0,0,1,1,2,2,3,3,5,5,7,7,8,8,10,10,11,11,12,12,13,13,18,18,19,19,20,20,22,22,23,23,24,24,25,25,27,27,28,28,29,29,30,30],"right_children":[2,4,6,8,-1,10,-1,12,14,-1,16,18,20,22,-1,-1,-1,-1,24,26,28,-1,30,32,34,36,-1,38,40,42,44,-1,-1,-1,-1,-1,-1,-1,-1,-1,-1,-1,-1,-1,-1],"split_conditions":[3.3158743E-1,1E0,8.7347186E-1,-1.0423685E0,1.0686038E-1,1.1958125E0,1.0701032E-1,-2.887606E-1,-7.988283E-2,-1.0700907E-1,-1.5157002E-1,-2.6013973E-1,1E0,1E0,-1.0701644E-1,1.06975935E-1,-9.511722E-2,-1.076038E-1,-2.591272E-1,-1.6535822E0,-2.6069653E-1,-1.0713657E-1,-4.3144066E-2,-2.0852512E-1,-2.4669977E-1,1E0,-1.0703583E-1,-1.7225873E-1,2.5792223E-1,-2.5370452E-1,-8.690827E-2,-1.10663585E-1,5.062361E-1,-2.098872E-2,-8.895143E-2,-1.0667541E-1,2.2519806E-2,-1.1527003E-1,1.5744253E-1,-1.0713692E-1,-1.2382934E-1,9.3496494E-2,-9.8764084E-2,-1.0712756E-1,-2.7340112E-2],"split_indices":[7,6,8,0,0,1,0,2,0,0,5,1,13,10,0,0,0,0,1,0,5,0,7,4,4,10,0,4,7,5,0,0,0,0,0,0,0,0,0,0,0,0,0,0,0],"split_type":[0,0,0,0,0,0,0,0,0,0,0,0,0,0,0,0,0,0,0,0,0,0,0,0,0,0,0,0,0,0,0,0,0,0,0,0,0,0,0,0,0,0,0,0,0],"sum_hessian":[6.2870144E5,2.5593503E5,3.7276638E5,2.5527098E5,6.640557E2,6.8839164E4,3.0392722E5,4.517615E4,2.1009483E5,6.3240473E4,5.598689E3,2.1387764E4,2.3788387E4,7.81371E4,1.3195773E5,5.5913247E3,7.3644876E0,6.307889E3,1.5079875E4,2.1590387E4,2.1980002E3,4.6402062E4,3.173504E4,2.0167844E2,1.4878196E4,3.203103E2,2.1270076E4,4.6727182E2,1.7307283E3,9.3873955E3,2.2347643E4,7.844808E1,1.2323036E2,3.7678462E3,1.1110351E4,1.9363074E2,1.2667958E2,2.8379462E2,1.8347722E2,1.5877828E3,1.4294551E2,7.163662E2,8.671029E3,2.1791043E4,5.565994E2],"tree_param":{"num_deleted":"0","num_feature":"14","num_nodes":"45","size_leaf_vector":"1"}},{"base_weights":[2.0649799E-4,-1.0187293E0,7.0226765E-1,-1.0241266E0,1.0613419E-1,-8.9030993E-1,1.0629883E-1,-9.0568745E-1,-1.0499295E0,-1.0629745E-1,1.0597669E0,-7.634595E-1,-1.03715E0,-1.0278401E0,-1.0630422E-1,1.0626097E-1,-9.352512E-2,-1.0665705E-1,-6.3758314E-1,-5.8239806E-1,-1.0441991E0,-1.064116E-1,-9.751603E-1,4.978652E-1,-7.480603E-1,-1.06067576E-1,2.0424077E-1,-1.063208E-1,-8.581981E-1,-8.1859803E-1,-1.0420885E0,-1.1251289E-1,5.423342E-2,-7.9273395E-2,2.8279467E-2,8.437573E-2,-1.18642785E-1,-4.758487E-3,-1.0771672E-1,7.8869E-2,-9.724611E-2,-1.06403194E-1,-2.4937766E-2],"categories":[],"categories_nodes":[],"categories_segments":[],"categories_sizes":[],"default_left":[0,0,0,0,0,0,0,0,0,0,0,0,0,0,0,0,0,0,0,0,0,0,0,0,0,0,0,0,0,0,0,0,0,0,0,0,0,0,0,0,0,0,0],"id":21,"left_children":[1,3,5,7,-1,9,-1,11,13,-1,15,17,19,21,-1,-1,-1,-1,23,25,27,-1,29,31,33,-1,35,-1,37,39,41,-1,-1,-1,-1,-1,-1,-1,-1,-1,-1,-1,-1],"loss_changes":[4.1012272E5,2.6267344E3,1.9499908E5,7.119531E2,0E0,2.11078E4,0E0,7.7958203E2,5.4359375E1,0E0,2.9913086E1,7.643613E2,6.89082E1,1.3536719E2,0E0,0E0,0E0,0E0,1.7778833E3,1.2561075E2,7.45918E1,0E0,3.0427148E2,9.133673E1,5.949414E2,0E0,1.1382351E2,0E0,3.5231262E2,2.1584756E3,3.545078E2,0E0,0E0,0E0,0E0,0E0,0E0,0E0,0E0,0E0,0E0,0E0,0E0],"parents":[2147483647,0,0,1,1,2,2,3,3,5,5,7,7,8,8,10,10,11,11,12,12,13,13,18,18,19,19,20,20,22,22,23,23,24,24,26,26,28,28,29,29,30,30],"right_children":[2,4,6,8,-1,10,-1,12,14,-1,16,18,20,22,-1,-1,-1,-1,24,26,28,-1,30,32,34,-1,36,-1,38,40,42,-1,-1,-1,-1,-1,-1,-1,-1,-1,-1,-1,-1],"split_conditions":[3.3158743E-1,1E0,8.7347186E-1,-1.0423685E0,1.0613419E-1,1.1958125E0,1.0629883E-1,-2.887606E-1,-7.988283E-2,-1.0629745E-1,-1.5157002E-1,-3.0760407E-1,-1.6535822E0,1E0,-1.0630422E-1,1.0626097E-1,-9.352512E-2,-1.0665705E-1,-3.098411E-1,1E0,1E0,-1.064116E-1,-4.3144066E-2,-1.4128517E-1,-1.3795899E0,-1.06067576E-1,-3.2288054E-1,-1.063208E-1,-2.6069653E-1,-2.5370452E-1,-8.690827E-2,-1.1251289E-1,5.423342E-2,-7.9273395E-2,2.8279467E-2,8.437573E-2,-1.18642785E-1,-4.758487E-3,-1.0771672E-1,7.8869E-2,-9.724611E-2,-1.06403194E-1,-2.4937766E-2],"split_indices":[7,6,8,0,0,1,0,2,0,0,5,5,0,10,0,0,0,0,4,10,13,0,7,1,0,0,4,0,5,5,0,0,0,0,0,0,0,0,0,0,0,0,0],"split_type":[0,0,0,0,0,0,0,0,0,0,0,0,0,0,0,0,0,0,0,0,0,0,0,0,0,0,0,0,0,0,0,0,0,0,0,0,0,0,0,0,0,0,0],"sum_hessian":[5.733113E5,2.3387566E5,3.394357E5,2.3327089E5,6.0476965E2,6.268419E4,2.7675147E5,4.1735367E4,1.9153552E5,5.7585855E4,5.098336E3,2.0050135E4,2.1685232E4,7.137615E4,1.20159375E5,5.0915483E3,6.787557E0,5.881053E3,1.4169082E4,3.3228952E2,2.1352943E4,4.2257758E4,2.9118389E4,1.2560723E3,1.291301E4,2.0643086E2,1.25858665E2,1.9368783E4,1.9841586E3,8.723988E3,2.03944E4,3.284966E1,1.2232227E3,1.237687E4,5.3614014E2,8.648207E1,3.93766E1,4.2224484E2,1.5619138E3,7.618111E2,7.9621772E3,1.9844727E4,5.4967334E2],"tree_param":{"num_deleted":"0","num_feature":"14","num_nodes":"43","size_leaf_vector":"1"}},{"base_weights":[2.236362E-4,-1.0091537E0,6.980696E-1,-1.0144923E0,1.0548269E-1,-8.849844E-1,1.0566355E-1,-8.8828325E-1,-1.0423149E0,-1.0566204E-1,1.0533563E0,-7.397309E-1,-1.028739E0,-1.0181936E0,-1.0566831E-1,1.0562185E-1,-9.195619E-2,-1.239464E-1,-8.0733097E-1,-1.0485923E0,-8.383736E-1,-1.05764344E-1,-9.6137047E-1,1.1469644E0,-1.0808926E-1,-8.4217227E-1,8.704303E-2,-5.2533764E-1,-1.0568229E-1,-1.0594101E-1,-4.8264503E-3,-7.962853E-1,-1.0333217E0,-5.9422874E-3,2.512856E-1,-1.0625058E-1,-7.044106E-2,-1.0990765E-1,2.677712E-1,1.6247613E-2,-1.1101977E-1,1.3369915E-1,-1.1957089E-1,6.730808E-2,-9.573631E-2,-1.05756395E-1,-2.2719996E-2],"categories":[],"categories_nodes":[],"categories_segments":[],"categories_sizes":[],"default_left":[0,0,0,0,0,0,0,0,0,0,0,0,0,0,0,0,0,0,0,0,0,0,0,0,0,0,0,0,0,0,0,0,0,0,0,0,0,0,0,0,0,0,0,0,0,0,0],"id":22,"left_children":[1,3,5,7,-1,9,-1,11,13,-1,15,17,19,21,-1,-1,-1,23,25,27,29,-1,31,33,-1,35,37,39,-1,-1,41,43,45,-1,-1,-1,-1,-1,-1,-1,-1,-1,-1,-1,-1,-1,-1],"loss_changes":[3.6800203E5,2.3541406E3,1.7533452E5,7.470469E2,0E0,1.8979E4,0E0,8.021543E2,5.940625E1,0E0,2.7176758E1,7.7854297E2,7.3865234E1,1.4508594E2,0E0,0E0,0E0,2.2530083E3,5.2528516E2,7.655664E1,3.4504138E2,0E0,3.1654102E2,1.3114104E3,0E0,4.916709E2,1.9476838E3,1.1252322E2,0E0,0E0,6.3043726E2,1.9212378E3,3.633379E2,0E0,0E0,0E0,0E0,0E0,0E0,0E0,0E0,0E0,0E0,0E0,0E0,0E0,0E0],"parents":[2147483647,0,0,1,1,2,2,3,3,5,5,7,7,8,8,10,10,11,11,12,12,13,13,17,17,18,18,19,19,20,20,22,22,23,23,25,25,26,26,27,27,30,30,31,31,32,32],"right_children":[2,4,6,8,-1,10,-1,12,14,-1,16,18,20,22,-1,-1,-1,24,26,28,30,-1,32,34,-1,36,38,40,-1,-1,42,44,46,-1,-1,-1,-1,-1,-1,-1,-1,-1,-1,-1,-1,-1,-1],"split_conditions":[3.3158743E-1,1E0,8.7347186E-1,-1.0423685E0,1.0548269E-1,1.1958125E0,1.0566355E-1,-2.887606E-1,-7.988283E-2,-1.0566204E-1,-1.5157002E-1,-5.0524735E-1,1E0,1E0,-1.0566831E-1,1.0562185E-1,-9.195619E-2,1.2036131E-1,-1.3795899E0,-1.6535822E0,2.5792223E-1,-1.05764344E-1,-4.3144066E-2,9.910243E-2,-1.0808926E-1,1E0,1E0,-2.87197E-1,-1.0568229E-1,-1.0594101E-1,2.6036975E-1,-2.5370452E-1,-8.690827E-2,-5.9422874E-3,2.512856E-1,-1.0625058E-1,-7.044106E-2,-1.0990765E-1,2.677712E-1,1.6247613E-2,-1.1101977E-1,1.3369915E-1,-1.1957089E-1,6.730808E-2,-9.573631E-2,-1.05756395E-1,-2.2719996E-2],"split_indices":[7,6,8,0,0,1,0,2,0,0,5,7,13,10,0,0,0,5,0,0,7,0,7,5,0,10,13,2,0,0,7,5,0,0,0,0,0,0,0,0,0,0,0,0,0,0,0],"split_type":[0,0,0,0,0,0,0,0,0,0,0,0,0,0,0,0,0,0,0,0,0,0,0,0,0,0,0,0,0,0,0,0,0,0,0,0,0,0,0,0,0,0,0,0,0,0,0],"sum_hessian":[5.2243884E5,2.1355233E5,3.088865E5,2.130019E5,5.5043085E2,5.7042914E4,2.518436E5,3.8480305E4,1.745216E5,5.2403176E4,4.639737E3,1.8704188E4,1.9776117E4,6.5176004E4,1.0934559E5,4.6334795E3,6.2573576E0,1.8504889E3,1.6853697E4,1.7904352E4,1.871767E3,3.845845E4,2.6717553E4,7.9476746E2,1.0557214E3,1.6221817E4,6.3187994E2,2.782689E2,1.7626082E4,1.479238E3,3.92529E2,8.1136484E3,1.8603904E4,4.2253293E2,3.722345E2,6.238063E3,9.983755E3,4.338298E2,1.9805016E2,1.2821097E2,1.5005794E2,1.8451048E2,2.080185E2,8.0126447E2,7.3123843E3,1.8060469E4,5.434363E2],"tree_param":{"num_deleted":"0","num_feature":"14","num_nodes":"47","size_leaf_vector":"1"}},{"base_weights":[2.2395057E-4,-9.9951434E-1,6.943164E-1,-1.0047921E0,1.0489678E-1,-8.8022166E-1,1.0509558E-1,-8.6871606E-1,-1.0352573E0,-1.0509391E-1,1.0476099E0,-7.1177924E-1,-1.0218756E0,-1.0089315E0,-1.0509975E-1,1.05049625E-1,-9.040179E-2,-1.0541766E-1,-5.8021224E-1,-1.0421951E0,-8.282467E-1,-9.4931364E-1,-1.0531362E-1,5.069912E-1,-6.993961E-1,-5.001378E-1,-1.0511134E-1,-1.053312E-1,-5.9174527E-3,-1.0267638E0,-7.259883E-1,5.4219734E-2,-1.3525866E-1,-5.58681E-2,-1.07082866E-1,-1.04763344E-1,2.1806972E-2,1.2578033E-1,-1.1732707E-1,-1.05121724E-1,-1.9431772E-2,2.5925517E-1,-9.310048E-2],"categories":[],"categories_nodes":[],"categories_segments":[],"categories_sizes":[],"default_left":[0,0,0,0,0,0,0,0,0,0,0,0,0,0,0,0,0,0,0,0,0,0,0,0,0,0,0,0,0,0,0,0,0,0,0,0,0,0,0,0,0,0,0],"id":23,"left_children":[1,3,5,7,-1,9,-1,11,13,-1,15,17,19,21,-1,-1,-1,-1,23,25,27,29,-1,31,33,35,-1,-1,37,39,41,-1,-1,-1,-1,-1,-1,-1,-1,-1,-1,-1,-1],"loss_changes":[3.3027878E5,2.1096719E3,1.5775325E5,8.0559375E2,0E0,1.7075746E4,0E0,8.548047E2,6.4796875E1,0E0,2.4726562E1,7.914756E2,7E1,1.5580469E2,0E0,0E0,0E0,0E0,1.6465635E3,7.825586E1,3.1748584E2,4.3760547E2,0E0,8.2942535E1,5.978379E2,1.0470153E2,0E0,0E0,5.4674805E2,3.8279688E2,4.4447007E3,0E0,0E0,0E0,0E0,0E0,0E0,0E0,0E0,0E0,0E0,0E0,0E0],"parents":[2147483647,0,0,1,1,2,2,3,3,5,5,7,7,8,8,10,10,11,11,12,12,13,13,18,18,19,19,20,20,21,21,23,23,24,24,25,25,28,28,29,29,30,30],"right_children":[2,4,6,8,-1,10,-1,12,14,-1,16,18,20,22,-1,-1,-1,-1,24,26,28,30,-1,32,34,36,-1,-1,38,40,42,-1,-1,-1,-1,-1,-1,-1,-1,-1,-1,-1,-1],"split_conditions":[3.3158743E-1,1E0,8.7347186E-1,-1.0423685E0,1.0489678E-1,1.1958125E0,1.0509558E-1,-2.887606E-1,-7.988283E-2,-1.0509391E-1,-1.5157002E-1,-3.0760407E-1,1E0,-2.887606E-1,-1.0509975E-1,1.05049625E-1,-9.040179E-2,-1.0541766E-1,-3.098411E-1,-1.6535822E0,2.5792223E-1,8.029588E-2,-1.0531362E-1,-1.4357934E0,3.045173E-1,1E0,-1.0511134E-1,-1.053312E-1,2.6036975E-1,-8.690827E-2,-3.2288054E-1,5.4219734E-2,-1.3525866E-1,-5.58681E-2,-1.07082866E-1,-1.04763344E-1,2.1806972E-2,1.2578033E-1,-1.1732707E-1,-1.05121724E-1,-1.9431772E-2,2.5925517E-1,-9.310048E-2],"split_indices":[7,6,8,0,0,1,0,2,0,0,5,5,13,2,0,0,0,0,4,0,7,1,0,0,5,10,0,0,7,0,4,0,0,0,0,0,0,0,0,0,0,0,0],"split_type":[0,0,0,0,0,0,0,0,0,0,0,0,0,0,0,0,0,0,0,0,0,0,0,0,0,0,0,0,0,0,0,0,0,0,0,0,0,0,0,0,0,0,0],"sum_hessian":[4.759652E5,1.9503928E5,2.809259E5,1.9453858E5,5.006959E2,5.1879598E4,2.2904631E5,3.559222E4,1.5894636E5,4.76596E4,4.219998E3,1.7582125E4,1.8010094E4,5.9498465E4,9.94479E4,4.214227E3,5.770686E0,4.878646E3,1.27034795E4,1.6295641E4,1.7144528E3,2.5342332E4,3.4156133E4,1.2547059E3,1.1448773E4,2.6468915E2,1.6030951E4,1.3458289E3,3.6862393E2,1.8813969E4,6.5283633E3,1.232088E3,2.2617844E1,8.304982E3,3.1437903E3,1.499343E2,1.1475486E2,1.7696866E2,1.9165526E2,1.8276818E4,5.3715106E2,3.7917212E2,6.149191E3],"tree_param":{"num_deleted":"0","num_feature":"14","num_nodes":"43","size_leaf_vector":"1"}},{"base_weights":[2.2990412E-4,-9.909186E-1,6.909562E-1,-9.961423E-1,1.0436852E-1,-8.7595737E-1,1.0458714E-1,-8.5150796E-1,-1.0289664E0,-1.0458531E-1,1.0424498E0,-6.878188E-1,-1.0156816E0,-1.0007273E0,-1.0459077E-1,1.0453649E-1,-8.885484E-2,-1.0488018E-1,-5.5441535E-1,-1.0364523E0,-8.189251E-1,-1.04675665E-1,-9.353505E-1,4.7240764E-1,-6.6988987E-1,-4.7881696E-1,-1.0460015E-1,-1.0478405E-1,-6.867727E-3,-7.544543E-1,-1.01694E0,1.04846016E-1,3.5674296E-2,-7.665449E-2,-7.188612E-3,1.7142069E-2,-1.1037314E-1,1.18858255E-1,-1.1534969E-1,5.331883E-2,-9.2643805E-2,-1.04660034E-1,-1.6873369E-2],"categories":[],"categories_nodes":[],"categories_segments":[],"categories_sizes":[],"default_left":[0,0,0,0,0,0,0,0,0,0,0,0,0,0,0,0,0,0,0,0,0,0,0,0,0,0,0,0,0,0,0,0,0,0,0,0,0,0,0,0,0,0,0],"id":24,"left_children":[1,3,5,7,-1,9,-1,11,13,-1,15,17,19,21,-1,-1,-1,-1,23,25,27,-1,29,31,33,35,-1,-1,37,39,41,-1,-1,-1,-1,-1,-1,-1,-1,-1,-1,-1,-1],"loss_changes":[2.966627E5,1.8924844E3,1.4201552E5,8.4184375E2,0E0,1.5372066E4,0E0,8.8180273E2,6.8171875E1,0E0,2.2527832E1,7.914424E2,6.6146484E1,1.6232812E2,0E0,0E0,0E0,0E0,1.4244897E3,7.843652E1,2.9185657E2,0E0,3.3031445E2,8.056549E1,6.2402686E2,1.0235292E2,0E0,0E0,4.7602048E2,1.5454729E3,3.886797E2,0E0,0E0,0E0,0E0,0E0,0E0,0E0,0E0,0E0,0E0,0E0,0E0],"parents":[2147483647,0,0,1,1,2,2,3,3,5,5,7,7,8,8,10,10,11,11,12,12,13,13,18,18,19,19,20,20,22,22,23,23,24,24,25,25,28,28,29,29,30,30],"right_children":[2,4,6,8,-1,10,-1,12,14,-1,16,18,20,22,-1,-1,-1,-1,24,26,28,-1,30,32,34,36,-1,-1,38,40,42,-1,-1,-1,-1,-1,-1,-1,-1,-1,-1,-1,-1],"split_conditions":[3.3158743E-1,1E0,8.7347186E-1,-1.0423685E0,1.0436852E-1,1.1958125E0,1.0458714E-1,-2.887606E-1,-7.988283E-2,-1.0458531E-1,-1.5157002E-1,-3.0760407E-1,1E0,1E0,-1.0459077E-1,1.0453649E-1,-8.885484E-2,-1.0488018E-1,-3.098411E-1,-1.6535822E0,2.5792223E-1,-1.04675665E-1,-4.3144066E-2,-1.6465567E0,2.6518893E-1,-2.87197E-1,-1.0460015E-1,-1.0478405E-1,2.6036975E-1,-2.5370452E-1,-8.690827E-2,1.04846016E-1,3.5674296E-2,-7.665449E-2,-7.188612E-3,1.7142069E-2,-1.1037314E-1,1.18858255E-1,-1.1534969E-1,5.331883E-2,-9.2643805E-2,-1.04660034E-1,-1.6873369E-2],"split_indices":[7,6,8,0,0,1,0,2,0,0,5,5,13,10,0,0,0,0,4,0,7,0,7,0,7,2,0,0,7,5,0,0,0,0,0,0,0,0,0,0,0,0,0],"split_type":[0,0,0,0,0,0,0,0,0,0,0,0,0,0,0,0,0,0,0,0,0,0,0,0,0,0,0,0,0,0,0,0,0,0,0,0,0,0,0,0,0,0,0],"sum_hessian":[4.333275E5,1.7796236E5,2.5536516E5,1.7750712E5,4.5523056E2,4.7159484E4,2.0820567E5,3.283808E4,1.4466905E5,4.33232E4,3.8362832E3,1.6445906E4,1.6392172E4,5.426932E4,9.039973E4,3.8309587E3,5.324414E0,4.4358545E3,1.2010051E4,1.4823104E4,1.5690685E3,3.1838236E4,2.2431084E4,1.2137803E3,1.07962705E4,2.5042249E2,1.4572681E4,1.2237955E3,3.4527292E2,6.9755347E3,1.545555E4,2.016123E2,1.01216797E3,9.293833E3,1.5024379E3,1.23080315E2,1.2734217E2,1.690199E2,1.76253E2,8.2166034E2,6.153874E3,1.493313E4,5.224192E2],"tree_param":{"num_deleted":"0","num_feature":"14","num_nodes":"43","size_leaf_vector":"1"}},{"base_weights":[2.5238757E-4,-9.822401E-1,6.879447E-1,-9.8740834E-1,1.0389098E-1,-8.7213504E-1,1.0413152E-1,-8.337187E-1,-1.0228064E0,-1.0412951E-1,1.0378082E0,-6.632233E-1,-1.0098768E0,-9.920357E-1,-1.0413468E-1,1.0407566E-1,-8.730971E-2,-1.0478186E-1,-5.261934E-1,-5.01526E-1,-1.0188352E0,-9.233092E-1,-1.0434661E-1,2.6357665E0,-5.8344275E-1,-1.03946745E-1,2.1779832E-1,-1.0414193E-1,-8.0684775E-1,-1.0116947E0,-6.764607E-1,-1.0572685E-1,3.923506E-1,-5.810603E-3,-7.858757E-2,8.047692E-2,-1.1553949E-1,-1.7275847E-3,-1.0500651E-1,-1.04150675E-1,-1.402188E-2,2.100871E-1,-8.978889E-2],"categories":[],"categories_nodes":[],"categories_segments":[],"categories_sizes":[],"default_left":[0,0,0,0,0,0,0,0,0,0,0,0,0,0,0,0,0,0,0,0,0,0,0,0,0,0,0,0,0,0,0,0,0,0,0,0,0,0,0,0,0,0,0],"id":25,"left_children":[1,3,5,7,-1,9,-1,11,13,-1,15,17,19,21,-1,-1,-1,-1,23,25,27,29,-1,31,33,-1,35,-1,37,39,41,-1,-1,-1,-1,-1,-1,-1,-1,-1,-1,-1,-1],"loss_changes":[2.6649712E5,1.6974844E3,1.27912805E5,8.804219E2,0E0,1.3845375E4,0E0,9.10291E2,7.4078125E1,0E0,2.0553955E1,8.118916E2,6.741699E1,1.7408594E2,0E0,0E0,0E0,0E0,2.05943E3,1.009393E2,6.9328125E1,4.619922E2,0E0,9.66464E2,1.1875085E3,0E0,9.135594E1,0E0,2.7181805E2,4.054922E2,3.4421726E3,0E0,0E0,0E0,0E0,0E0,0E0,0E0,0E0,0E0,0E0,0E0,0E0],"parents":[2147483647,0,0,1,1,2,2,3,3,5,5,7,7,8,8,10,10,11,11,12,12,13,13,18,18,19,19,20,20,21,21,23,23,24,24,26,26,28,28,29,29,30,30],"right_children":[2,4,6,8,-1,10,-1,12,14,-1,16,18,20,22,-1,-1,-1,-1,24,26,28,30,-1,32,34,-1,36,-1,38,40,42,-1,-1,-1,-1,-1,-1,-1,-1,-1,-1,-1,-1],"split_conditions":[3.3158743E-1,1E0,8.7347186E-1,-1.0423685E0,1.0389098E-1,1.1958125E0,1.0413152E-1,-2.887606E-1,-7.988283E-2,-1.0412951E-1,-1.5157002E-1,-2.6013973E-1,-1.6535822E0,-2.887606E-1,-1.0413468E-1,1.0407566E-1,-8.730971E-2,-1.0478186E-1,-2.591272E-1,1E0,1E0,8.029588E-2,-1.0434661E-1,-2.0852512E-1,-2.4669977E-1,-1.03946745E-1,-3.2288054E-1,-1.0414193E-1,-9.38594E-2,-8.690827E-2,-2.5370452E-1,-1.0572685E-1,3.923506E-1,-5.810603E-3,-7.858757E-2,8.047692E-2,-1.1553949E-1,-1.7275847E-3,-1.0500651E-1,-1.04150675E-1,-1.402188E-2,2.100871E-1,-8.978889E-2],"split_indices":[7,6,8,0,0,1,0,2,0,0,5,1,0,2,0,0,0,0,1,10,13,1,0,4,4,0,4,0,1,0,5,0,0,0,0,0,0,0,0,0,0,0,0],"split_type":[0,0,0,0,0,0,0,0,0,0,0,0,0,0,0,0,0,0,0,0,0,0,0,0,0,0,0,0,0,0,0,0,0,0,0,0,0,0,0,0,0,0,0],"sum_hessian":[3.944273E5,1.6240378E5,2.3202352E5,1.6199006E5,4.1371E2,4.2849164E4,1.8917436E5,3.0329838E4,1.3166023E5,3.9363285E4,3.4858762E3,1.5415063E4,1.4914774E4,4.952318E4,8.213705E4,3.4809607E3,4.915524E0,4.0477615E3,1.1367302E4,2.5927075E2,1.4655503E4,2.1205379E4,2.83178E4,2.0135136E2,1.116595E4,1.4808293E2,1.11187805E2,1.3240968E4,1.4145359E3,1.5612233E4,5.5931465E3,5.2104057E1,1.492473E2,3.1062253E3,8.059725E3,7.8182625E1,3.3005184E1,3.3336917E2,1.0811666E3,1.5095637E4,5.165973E2,4.1237076E2,5.1807754E3],"tree_param":{"num_deleted":"0","num_feature":"14","num_nodes":"43","size_leaf_vector":"1"}},{"base_weights":[2.4309175E-4,-9.7347564E-1,6.852442E-1,-9.785863E-1,1.0345811E-1,-8.6870515E-1,1.0372285E-1,-8.135257E-1,-1.0173393E0,-1.0372062E-1,1.0336255E0,-6.361424E-1,-1.0033786E0,-9.844117E-1,-1.03725545E-1,1.0366122E-1,-8.5762106E-2,-1.0430528E-1,-4.9824807E-1,-1.0267471E0,-7.883113E-1,-1.03802584E-1,-9.0943897E-1,2.0199113E0,-5.5366695E-1,-4.47377E-1,-1.0373079E-1,-1.0388416E-1,9.776102E-3,-7.122797E-1,-1.0016494E0,-1.1656401E-1,2.817376E-1,-5.2381186E-3,-7.601988E-2,1.6168185E-2,-1.0989525E-1,1.1309562E-1,-1.1326652E-1,4.335549E-2,-8.9389265E-2,-1.0377929E-1,-1.190496E-2],"categories":[],"categories_nodes":[],"categories_segments":[],"categories_sizes":[],"default_left":[0,0,0,0,0,0,0,0,0,0,0,0,0,0,0,0,0,0,0,0,0,0,0,0,0,0,0,0,0,0,0,0,0,0,0,0,0,0,0,0,0,0,0],"id":26,"left_children":[1,3,5,7,-1,9,-1,11,13,-1,15,17,19,21,-1,-1,-1,-1,23,25,27,-1,29,31,33,35,-1,-1,37,39,41,-1,-1,-1,-1,-1,-1,-1,-1,-1,-1,-1,-1],"loss_changes":[2.3943706E5,1.5223906E3,1.1526314E5,9.450469E2,0E0,1.2475969E4,0E0,9.463887E2,7.75E1,0E0,1.8779785E1,8.1536865E2,6.744922E1,1.8054688E2,0E0,0E0,0E0,0E0,1.5169846E3,7.446875E1,2.670136E2,0E0,3.4169336E2,5.980358E2,1.1004099E3,8.788098E1,0E0,0E0,4.1120636E2,1.2500432E3,4.0915625E2,0E0,0E0,0E0,0E0,0E0,0E0,0E0,0E0,0E0,0E0,0E0,0E0],"parents":[2147483647,0,0,1,1,2,2,3,3,5,5,7,7,8,8,10,10,11,11,12,12,13,13,18,18,19,19,20,20,22,22,23,23,24,24,25,25,28,28,29,29,30,30],"right_children":[2,4,6,8,-1,10,-1,12,14,-1,16,18,20,22,-1,-1,-1,-1,24,26,28,-1,30,32,34,36,-1,-1,38,40,42,-1,-1,-1,-1,-1,-1,-1,-1,-1,-1,-1,-1],"split_conditions":[3.3158743E-1,1E0,8.7347186E-1,-1.0423685E0,1.0345811E-1,1.1958125E0,1.0372285E-1,-2.887606E-1,-7.988283E-2,-1.0372062E-1,-1.5157002E-1,-2.6013973E-1,1E0,1E0,-1.03725545E-1,1.0366122E-1,-8.5762106E-2,-1.0430528E-1,-2.591272E-1,-1.6535822E0,2.5792223E-1,-1.03802584E-1,-4.3144066E-2,-1.5622514E0,-2.4669977E-1,-2.87197E-1,-1.0373079E-1,-1.0388416E-1,2.6036975E-1,-2.5370452E-1,-8.690827E-2,-1.1656401E-1,2.817376E-1,-5.2381186E-3,-7.601988E-2,1.6168185E-2,-1.0989525E-1,1.1309562E-1,-1.1326652E-1,4.335549E-2,-8.9389265E-2,-1.0377929E-1,-1.190496E-2],"split_indices":[7,6,8,0,0,1,0,2,0,0,5,1,13,10,0,0,0,0,1,0,7,0,7,0,4,2,0,0,7,5,0,0,0,0,0,0,0,0,0,0,0,0,0],"split_type":[0,0,0,0,0,0,0,0,0,0,0,0,0,0,0,0,0,0,0,0,0,0,0,0,0,0,0,0,0,0,0,0,0,0,0,0,0,0,0,0,0,0,0],"sum_hessian":[3.5897494E5,1.4824561E5,2.1072931E5,1.4786978E5,3.7583142E2,3.8916824E4,1.718125E5,2.8120078E4,1.197497E5,3.575063E4,3.1661965E3,1.4539703E4,1.3580375E4,4.5150812E4,7.459889E4,3.1616553E3,4.5411325E0,3.6784512E3,1.0861252E4,1.2245991E4,1.3343834E3,2.6317736E4,1.8833076E4,2.3312059E2,1.0628131E4,2.1999982E2,1.2025991E4,1.0153499E3,3.1903357E2,6.0041177E3,1.2828958E4,4.65821E1,1.8653848E2,3.1015146E3,7.5266167E3,1.1409842E2,1.059014E2,1.6102013E2,1.5801343E2,8.212557E2,5.182862E3,1.2324096E4,5.0486255E2],"tree_param":{"num_deleted":"0","num_feature":"14","num_nodes":"43","size_leaf_vector":"1"}},{"base_weights":[2.5161542E-4,-9.645477E-1,6.828188E-1,-9.6959907E-1,1.0306447E-1,-8.6562407E-1,1.0335592E-1,-7.933527E-1,-1.0117956E0,-1.0335349E-1,1.0298495E0,-6.0901636E-1,-9.9832207E-1,-9.7595674E-1,-1.0335821E-1,1.0328796E-1,-8.420886E-2,1.0901218E-1,-6.9432896E-1,-4.6973717E-1,-1.0081873E0,-8.969627E-1,-1.0357107E-1,1.2491543E0,-1.0553471E-1,-7.417144E-1,4.2349324E-1,-1.0315535E-1,2.2846639E-1,-1.0336154E-1,-7.767351E-1,-9.974667E-1,-6.2588054E-1,-3.8849126E-4,2.496038E-1,-1.0410668E-1,-5.8368225E-2,-1.0871064E-1,2.9819617E-1,7.742996E-2,-1.1321219E-1,3.912345E-4,-1.046856E-1,-1.03369094E-1,-9.455918E-3,1.8057273E-1,-8.624357E-2],"categories":[],"categories_nodes":[],"categories_segments":[],"categories_sizes":[],"default_left":[0,0,0,0,0,0,0,0,0,0,0,0,0,0,0,0,0,0,0,0,0,0,0,0,0,0,0,0,0,0,0,0,0,0,0,0,0,0,0,0,0,0,0,0,0,0,0],"id":27,"left_children":[1,3,5,7,-1,9,-1,11,13,-1,15,17,19,21,-1,-1,-1,23,25,27,29,31,-1,33,-1,35,37,-1,39,-1,41,43,45,-1,-1,-1,-1,-1,-1,-1,-1,-1,-1,-1,-1,-1,-1],"loss_changes":[2.1512698E5,1.3651406E3,1.0390682E5,1.00328125E3,0E0,1.1246631E4,0E0,9.849629E2,8.403906E1,0E0,1.7182129E1,8.415122E2,6.392578E1,1.9354688E2,0E0,0E0,0E0,1.9390042E3,6.506411E2,8.972502E1,7.054199E1,4.8299902E2,0E0,1.1529518E3,0E0,5.566084E2,1.935378E3,0E0,7.702835E1,0E0,2.5389032E2,4.2339746E2,2.7647744E3,0E0,0E0,0E0,0E0,0E0,0E0,0E0,0E0,0E0,0E0,0E0,0E0,0E0,0E0],"parents":[2147483647,0,0,1,1,2,2,3,3,5,5,7,7,8,8,10,10,11,11,12,12,13,13,17,17,18,18,19,19,20,20,21,21,23,23,25,25,26,26,28,28,30,30,31,31,32,32],"right_children":[2,4,6,8,-1,10,-1,12,14,-1,16,18,20,22,-1,-1,-1,24,26,28,30,32,-1,34,-1,36,38,-1,40,-1,42,44,46,-1,-1,-1,-1,-1,-1,-1,-1,-1,-1,-1,-1,-1,-1],"split_conditions":[3.3158743E-1,1E0,8.7347186E-1,-1.0423685E0,1.0306447E-1,1.1958125E0,1.0335592E-1,-2.887606E-1,-7.988283E-2,-1.0335349E-1,-1.5157002E-1,-5.0524735E-1,-1.6535822E0,-2.887606E-1,-1.0335821E-1,1.0328796E-1,-8.420886E-2,1.2036131E-1,-1.3795899E0,1E0,1E0,8.029588E-2,-1.0357107E-1,9.910243E-2,-1.0553471E-1,1E0,2.957029E-1,-1.0315535E-1,-3.2288054E-1,-1.0336154E-1,-2.6069653E-1,-8.690827E-2,-3.2288054E-1,-3.8849126E-4,2.496038E-1,-1.0410668E-1,-5.8368225E-2,-1.0871064E-1,2.9819617E-1,7.742996E-2,-1.1321219E-1,3.912345E-4,-1.046856E-1,-1.03369094E-1,-9.455918E-3,1.8057273E-1,-8.624357E-2],"split_indices":[7,6,8,0,0,1,0,2,0,0,5,7,0,2,0,0,0,5,0,10,13,1,0,5,0,10,4,0,4,0,5,0,4,0,0,0,0,0,0,0,0,0,0,0,0,0,0],"split_type":[0,0,0,0,0,0,0,0,0,0,0,0,0,0,0,0,0,0,0,0,0,0,0,0,0,0,0,0,0,0,0,0,0,0,0,0,0,0,0,0,0,0,0,0,0,0,0],"sum_hessian":[3.2667044E5,1.3535192E5,1.9131852E5,1.3501062E5,3.4130203E2,3.5332363E4,1.5598616E5,2.6083805E4,1.0892682E5,3.245756E4,2.8748027E3,1.3735205E4,1.23486E4,4.119928E4,6.772754E4,2.8706042E3,4.1985035E0,1.4586116E3,1.2276594E4,2.2713657E2,1.2121463E4,1.774999E4,2.3449291E4,7.36933E2,7.216786E2,1.1777664E4,4.9892902E2,1.25596596E2,1.0153997E2,1.0918464E4,1.2029988E3,1.2947144E4,4.8028467E3,3.680564E2,3.6887656E2,4.0674026E3,7.7102617E3,3.1406836E2,1.8486066E2,7.27753E1,2.8764675E1,3.0950803E2,8.934907E2,1.2447607E4,4.995369E2,4.2522467E2,4.3776216E3],"tree_param":{"num_deleted":"0","num_feature":"14","num_nodes":"47","size_leaf_vector":"1"}},{"base_weights":[2.3506871E-4,-9.5564944E-1,6.806384E-1,-9.606408E-1,1.0270529E-1,-8.628548E-1,1.0302626E-1,-7.717416E-1,-1.006916E0,-1.0302357E-1,1.0264338E0,-5.813294E-1,-9.922811E-1,-9.686457E-1,-1.03028156E-1,1.02951266E-1,-8.264795E-2,-1.0343969E-1,-4.3856874E-1,-1.0185726E0,-7.5785065E-1,-1.0309925E-1,-8.830127E-1,3.0972926E-2,-7.034582E-1,-4.1705486E-1,-1.0302961E-1,-1.031811E-1,3.8579162E-2,-5.614971E-1,-9.5717955E-1,-1.1684248E-2,2.5887772E-1,-8.010644E-2,7.212796E-2,1.5369742E-2,-1.0973414E-1,1.0802587E-1,-1.1126115E-1,2.066336E-1,-7.5621754E-2,-9.9184245E-2,-1.3978133E-2],"categories":[],"categories_nodes":[],"categories_segments":[],"categories_sizes":[],"default_left":[0,0,0,0,0,0,0,0,0,0,0,0,0,0,0,0,0,0,0,0,0,0,0,0,0,0,0,0,0,0,0,0,0,0,0,0,0,0,0,0,0,0,0],"id":28,"left_children":[1,3,5,7,-1,9,-1,11,13,-1,15,17,19,21,-1,-1,-1,-1,23,25,27,-1,29,31,33,35,-1,-1,37,39,41,-1,-1,-1,-1,-1,-1,-1,-1,-1,-1,-1,-1],"loss_changes":[1.9331822E5,1.2241484E3,9.3703734E4,1.0769219E3,0E0,1.014209E4,0E0,1.0183291E3,8.755469E1,0E0,1.574292E1,8.419126E2,6.8512695E1,1.9959766E2,0E0,0E0,0E0,0E0,1.231953E3,7.082617E1,2.4822113E2,0E0,3.769414E2,1.3513312E3,8.811924E2,7.582429E1,0E0,0E0,3.5146677E2,1.5210837E3,3.6426855E2,0E0,0E0,0E0,0E0,0E0,0E0,0E0,0E0,0E0,0E0,0E0,0E0],"parents":[2147483647,0,0,1,1,2,2,3,3,5,5,7,7,8,8,10,10,11,11,12,12,13,13,18,18,19,19,20,20,22,22,23,23,24,24,25,25,28,28,29,29,30,30],"right_children":[2,4,6,8,-1,10,-1,12,14,-1,16,18,20,22,-1,-1,-1,-1,24,26,28,-1,30,32,34,36,-1,-1,38,40,42,-1,-1,-1,-1,-1,-1,-1,-1,-1,-1,-1,-1],"split_conditions":[3.3158743E-1,1E0,8.7347186E-1,-1.0423685E0,1.0270529E-1,1.1958125E0,1.0302626E-1,-2.887606E-1,-7.988283E-2,-1.0302357E-1,-1.5157002E-1,-3.0760407E-1,1E0,1E0,-1.03028156E-1,1.02951266E-1,-8.264795E-2,-1.0343969E-1,-2.066798E-1,-1.6535822E0,2.5792223E-1,-1.0309925E-1,-1.4843647E-1,-2.0852512E-1,-1.3795899E0,-2.87197E-1,-1.0302961E-1,-1.031811E-1,2.6036975E-1,1.8611614E-1,-8.690827E-2,-1.1684248E-2,2.5887772E-1,-8.010644E-2,7.212796E-2,1.5369742E-2,-1.0973414E-1,1.0802587E-1,-1.1126115E-1,2.066336E-1,-7.5621754E-2,-9.9184245E-2,-1.3978133E-2],"split_indices":[7,6,8,0,0,1,0,2,0,0,5,5,13,10,0,0,0,0,4,0,7,0,7,4,0,2,0,0,7,1,0,0,0,0,0,0,0,0,0,0,0,0,0],"split_type":[0,0,0,0,0,0,0,0,0,0,0,0,0,0,0,0,0,0,0,0,0,0,0,0,0,0,0,0,0,0,0,0,0,0,0,0,0,0,0,0,0,0,0],"sum_hessian":[2.972337E5,1.2359593E5,1.7363775E5,1.2328608E5,3.098516E2,3.2067445E4,1.415703E5,2.4262504E4,9.902357E4,2.9458072E4,2.609374E3,1.3022557E4,1.1239947E4,3.7554848E4,6.1468723E4,2.605489E3,3.8850594E0,3.1187136E3,9.903844E3,1.0103493E4,1.1364541E3,2.172586E4,1.582899E4,3.572367E3,6.3314766E3,1.9385057E2,9.909643E3,8.453652E2,2.91089E2,2.9685962E3,1.2860394E4,3.378101E3,1.9426602E2,5.925939E3,4.0553757E2,1.0583247E2,8.8018105E1,1.5284528E2,1.3824371E2,2.0413246E2,2.7644636E3,1.2337012E4,5.2338184E2],"tree_param":{"num_deleted":"0","num_feature":"14","num_nodes":"43","size_leaf_vector":"1"}},{"base_weights":[2.472698E-4,-9.4640154E-1,6.7867905E-1,-9.5133007E-1,1.02376305E-1,-8.6036277E-1,1.0272986E-1,-7.504592E-1,-1.001673E0,-1.0272689E-1,1.0233378E0,-5.5421E-1,-9.8777336E-1,-9.599289E-1,-1.02731384E-1,1.0264712E-1,-8.107832E-2,-1.03103355E-1,-4.1243932E-1,-1.0145556E0,-7.504151E-1,-1.02794945E-1,-8.6781234E-1,1.5502591E-1,-6.29912E-1,-3.9468494E-1,-1.0273098E-1,-1.0284602E-1,3.634527E-2,-1.0317178E-1,-7.1146405E-1,-2.5915464E-2,3.8388452E-1,-8.027844E-2,4.077135E-2,-1.02397524E-1,2.3748508E-2,1.0283911E-1,-1.099558E-1,1.8671054E-1,-8.0712505E-2],"categories":[],"categories_nodes":[],"categories_segments":[],"categories_sizes":[],"default_left":[0,0,0,0,0,0,0,0,0,0,0,0,0,0,0,0,0,0,0,0,0,0,0,0,0,0,0,0,0,0,0,0,0,0,0,0,0,0,0,0,0],"id":29,"left_children":[1,3,5,7,-1,9,-1,11,13,-1,15,17,19,21,-1,-1,-1,-1,23,25,27,-1,29,31,33,35,-1,-1,37,-1,39,-1,-1,-1,-1,-1,-1,-1,-1,-1,-1],"loss_changes":[1.7369517E5,1.0972969E3,8.4530445E4,1.1381797E3,0E0,9.149059E3,0E0,1.0507959E3,9.539844E1,0E0,1.4445068E1,8.35001E2,6.418457E1,2.1391406E2,0E0,0E0,0E0,0E0,1.175904E3,7.215625E1,2.2748914E2,0E0,3.7259082E2,4.0298462E3,1.2359175E3,7.45002E1,0E0,0E0,3.0816873E2,0E0,1.8414387E3,0E0,0E0,0E0,0E0,0E0,0E0,0E0,0E0,0E0,0E0],"parents":[2147483647,0,0,1,1,2,2,3,3,5,5,7,7,8,8,10,10,11,11,12,12,13,13,18,18,19,19,20,20,22,22,23,23,24,24,25,25,28,28,30,30],"right_children":[2,4,6,8,-1,10,-1,12,14,-1,16,18,20,22,-1,-1,-1,-1,24,26,28,-1,30,32,34,36,-1,-1,38,-1,40,-1,-1,-1,-1,-1,-1,-1,-1,-1,-1],"split_conditions":[3.3158743E-1,1E0,8.7347186E-1,-1.0423685E0,1.02376305E-1,1.1958125E0,1.0272986E-1,-2.887606E-1,-7.988283E-2,-1.0272689E-1,-1.5157002E-1,-3.0760407E-1,1E0,1E0,-1.02731384E-1,1.0264712E-1,-8.107832E-2,-1.03103355E-1,-2.4669977E-1,-1.6535822E0,2.5792223E-1,-1.02794945E-1,-4.3818045E-1,-2.480911E-1,2.6518893E-1,1E0,-1.0273098E-1,-1.0284602E-1,2.6036975E-1,-1.0317178E-1,-4.31155E-1,-2.5915464E-2,3.8388452E-1,-8.027844E-2,4.077135E-2,-1.02397524E-1,2.3748508E-2,1.0283911E-1,-1.099558E-1,1.8671054E-1,-8.0712505E-2],"split_indices":[7,6,8,0,0,1,0,2,0,0,5,5,13,10,0,0,0,0,4,0,7,0,0,4,7,10,0,0,7,0,0,0,0,0,0,0,0,0,0,0,0],"split_type":[0,0,0,0,0,0,0,0,0,0,0,0,0,0,0,0,0,0,0,0,0,0,0,0,0,0,0,0,0,0,0,0,0,0,0,0,0,0,0,0,0],"sum_hessian":[2.704515E5,1.1290679E5,1.5754472E5,1.1262557E5,2.812231E2,2.9095604E4,1.2844912E5,2.2573223E4,9.005234E4,2.6727828E4,2.3677766E3,1.235745E4,1.0215771E4,3.428065E4,5.57717E4,2.3641782E3,3.5983863E0,2.8306687E3,9.526782E3,9.177016E3,1.0387566E3,1.9713602E4,1.4567047E4,2.6395432E3,6.887239E3,1.8566057E2,8.9913545E3,7.672865E2,2.7147015E2,7.108916E3,7.458131E3,2.373603E3,2.659402E2,5.9038594E3,9.8337915E2,9.2731606E1,9.292897E1,1.449618E2,1.2650835E2,2.661253E2,7.192006E3],"tree_param":{"num_deleted":"0","num_feature":"14","num_nodes":"41","size_leaf_vector":"1"}},{"base_weights":[2.4277323E-4,-9.366339E-1,6.7691535E-1,-7.296347E-1,-9.895218E-1,-8.581192E-1,1.02463186E-1,-5.28501E-1,-9.836524E-1,-9.957937E-1,1.0207369E-1,-1.0245992E-1,1.0205252E0,-1.0315671E-1,-3.8532677E-1,-8.302121E-1,-1.0271626E-1,-9.4922686E-1,-1.02464356E-1,1.02371864E-1,-7.94998E-2,1.5299098E0,-4.4100153E-1,-9.591777E-1,-8.112198E-2,-8.49319E-1,-1.0265414E-1,1.9835292E0,-1.2855262E-1,2.3723632E-2,-6.704998E-1,-3.7657967E-1,-1.0240982E-1,9.621218E-1,-1.0324638E-1,-9.749519E-1,-5.270828E-1,-1.0386824E-1,2.66255E-1,-3.2147057E-2,3.3413136E-1,-7.800615E-2,7.785339E-2,-1.1063492E-1,1.7215429E-2,-1.02936625E-1,1.24692336E-1,-1.02494575E-1,3.3036892E-3,7.491954E-2,-1.0293646E-1],"categories":[],"categories_nodes":[],"categories_segments":[],"categories_sizes":[],"default_left":[0,0,0,0,0,0,0,0,0,0,0,0,0,0,0,0,0,0,0,0,0,0,0,0,0,0,0,0,0,0,0,0,0,0,0,0,0,0,0,0,0,0,0,0,0,0,0,0,0,0,0],"id":30,"left_children":[1,3,5,7,9,11,-1,13,15,17,-1,-1,19,-1,21,23,-1,25,-1,-1,-1,27,29,31,33,35,-1,37,-1,39,41,43,-1,45,-1,47,49,-1,-1,-1,-1,-1,-1,-1,-1,-1,-1,-1,-1,-1,-1],"loss_changes":[1.5603089E5,1.12925E3,7.6277805E4,1.0728389E3,1.0375078E3,8.255678E3,0E0,8.442478E2,6.1121094E1,1.09125E2,0E0,0E0,1.3273193E1,0E0,9.742565E2,1.985387E2,0E0,2.4139258E2,0E0,0E0,0E0,3.3223303E2,9.463843E2,6.595007E1,3.0177426E2,5.5364355E2,0E0,4.5980963E2,0E0,3.3614973E3,9.436289E2,7.124024E1,0E0,8.3561646E1,0E0,4.962832E2,2.4636724E3,0E0,0E0,0E0,0E0,0E0,0E0,0E0,0E0,0E0,0E0,0E0,0E0,0E0,0E0],"parents":[2147483647,0,0,1,1,2,2,3,3,4,4,5,5,7,7,8,8,9,9,12,12,14,14,15,15,17,17,21,21,22,22,23,23,24,24,25,25,27,27,29,29,30,30,31,31,33,33,35,35,36,36],"right_children":[2,4,6,8,10,12,-1,14,16,18,-1,-1,20,-1,22,24,-1,26,-1,-1,-1,28,30,32,34,36,-1,38,-1,40,42,44,-1,46,-1,48,50,-1,-1,-1,-1,-1,-1,-1,-1,-1,-1,-1,-1,-1,-1],"split_conditions":[3.3158743E-1,-1.0423685E0,8.7347186E-1,-2.887606E-1,1E0,1.1958125E0,1.02463186E-1,-2.6013973E-1,-1.6114295E0,-7.988283E-2,1.0207369E-1,-1.0245992E-1,-1.5157002E-1,-1.0315671E-1,-2.591272E-1,1E0,-1.0271626E-1,-2.887606E-1,-1.02464356E-1,1.02371864E-1,-7.94998E-2,-2.066798E-1,-2.4669977E-1,-1.6535822E0,-9.38594E-2,8.029588E-2,-1.0265414E-1,-2.0852512E-1,-1.2855262E-1,-2.480911E-1,2.6518893E-1,-8.069165E-2,-1.0240982E-1,-9.711387E-2,-1.0324638E-1,-8.690827E-2,-7.2546415E-2,-1.0386824E-1,2.66255E-1,-3.2147057E-2,3.3413136E-1,-7.800615E-2,7.785339E-2,-1.1063492E-1,1.7215429E-2,-1.02936625E-1,1.24692336E-1,-1.02494575E-1,3.3036892E-3,7.491954E-2,-1.0293646E-1],"split_indices":[7,0,8,2,6,1,0,1,0,0,0,0,5,0,1,13,0,2,0,0,0,4,4,0,1,1,0,4,0,4,7,